SVM-light Version V6.02
0 # kernel type
3 # kernel parameter -d 
1 # kernel parameter -g 
1 # kernel parameter -s 
1 # kernel parameter -r 
empty# kernel parameter -u 
101400 # highest feature index 
18457 # number of training documents 
4486 # number of support vectors plus 1 
-0.25715242 # threshold b, each following line is a SV (starting with alpha*y)
-0.0012250816803654456660366278697438 17:1 20:2 333:1 641:1 758:8 759:2 2023:2 2125:3 2259:1 2858:3 2936:1 3061:1 3098:1 4028:3 4438:1 5018:1 5230:2 5231:1 5428:1 5783:2 6080:1 6774:2 6958:1 7591:1 7953:1 8827:1 8901:1 9289:1 9398:1 9486:2 10481:1 10482:4 10687:1 10890:1 11469:1 12062:1 12151:1 15779:1 16203:1 17349:1 18127:1 19058:1 21638:2 22813:1 23840:1 25962:6 27409:2 27784:1 29629:1 29671:1 30006:1 30929:1 32058:1 36332:1 36909:1 37411:1 39095:1 41034:1 41138:1 41920:4 43747:1 45486:1 45493:2 46636:1 46755:1 47027:1 47043:2 47815:2 48209:1 48242:1 48716:3 48901:3 49631:1 51907:3 51988:1 52083:1 52314:1 53563:3 53669:1 57258:1 58860:1 59155:2 59159:1 59188:2 61266:2 61905:1 63967:2 65521:1 65790:2 65921:1 66943:1 68001:2 68416:1 70515:1 73706:1 74113:4 75624:1 76902:2 80683:1 84795:1 85416:1 86181:3 87532:1 87720:1 88852:2 90121:1 90256:3 90506:3 91226:4 91978:1 92693:3 93059:1 94406:1 94665:3 95399:1 95677:1 97218:1 98512:2 98857:1 99405:2 100421:1 #
0.0012250816803654456660366278697438 2259:1 3469:1 7046:1 10481:1 10482:2 15779:1 17922:1 19621:1 20440:1 20443:1 24429:1 26065:1 32625:2 33257:1 33296:1 36383:1 39161:1 41138:2 46781:1 48716:1 50016:1 51907:1 52083:1 60848:1 64784:2 66814:1 66943:2 67537:1 68468:1 75043:1 77863:1 79669:1 80683:1 82240:1 82462:1 90256:5 90506:1 90903:1 91490:1 95399:1 95714:1 97552:1 99934:1 #
-0.0012250816803654456660366278697438 10481:1 19159:1 21000:1 25038:1 36622:1 36624:1 41138:1 48123:1 71656:1 71931:1 72061:1 72072:1 87583:1 93504:1 #
-0.00022307152066722399537390675305915 19:1 758:1 759:1 1934:1 2248:1 2259:1 3469:1 5231:1 7047:1 7955:1 10481:1 10482:8 10747:1 11099:1 11283:2 11447:1 11564:1 11824:3 11827:1 11832:1 12266:1 12736:1 12741:2 12886:1 13012:1 13087:1 13126:1 13632:6 13753:11 14300:1 14312:1 14960:7 15348:7 15987:1 16354:1 16904:2 17324:1 17714:8 17896:1 18004:1 18061:1 18529:1 18654:2 18733:1 18765:1 18869:2 19400:2 19904:1 20781:2 21169:1 21546:2 21638:4 22313:1 22650:1 23481:1 23722:1 24113:1 24983:1 26278:8 26283:2 26418:1 27071:1 27161:1 27364:1 27491:1 27558:1 27918:1 28151:1 29985:2 30006:1 30277:1 30446:2 30772:1 31729:1 32506:1 32514:1 32850:1 33376:1 33405:1 33994:1 33998:1 34729:1 35741:2 36793:1 36828:1 36937:1 37307:9 38318:1 38461:1 38521:1 38637:1 38652:2 38834:1 38867:1 39055:1 40075:1 40227:1 40881:1 41138:6 41285:1 41409:1 41447:1 41920:3 42289:1 42499:1 43083:1 43545:1 44083:1 45127:1 46079:1 46170:2 46173:1 46587:1 47057:1 47094:3 47118:1 47564:1 47943:1 48296:1 48303:2 48395:1 48943:1 49037:2 49384:1 49759:14 49827:1 50093:2 50208:1 50258:1 50487:4 51089:1 51182:1 51399:1 51527:1 51544:2 51552:3 51554:1 51556:5 51558:4 51627:2 51907:6 52083:1 53215:3 55935:1 56336:1 56386:1 57028:1 57476:1 58061:1 58174:1 58442:1 58988:3 59240:1 59260:1 59269:1 59632:1 60215:1 60231:4 60635:1 61598:1 61866:1 61875:1 62515:1 62781:1 63635:1 65039:4 65085:1 65521:2 65880:4 65921:1 66453:2 66943:17 66977:1 66989:1 67049:2 67180:6 67435:5 67537:1 67721:1 67889:9 67949:1 68298:2 68562:1 68811:1 69053:1 69550:2 69591:1 69606:2 69877:1 71035:1 71249:1 71680:1 71819:1 72171:1 73423:1 73734:1 73938:1 73943:1 74018:6 74241:1 74451:2 74768:1 74789:1 74961:1 74962:1 75001:1 75053:1 76408:1 76654:1 77043:1 77424:1 77497:1 77522:1 77528:1 77536:2 77664:1 77855:1 77889:1 78403:2 78443:1 78691:1 78830:1 79187:1 79275:1 79285:1 79382:4 79879:1 80448:1 80683:4 81623:2 82208:5 82347:2 82424:2 82708:2 82758:1 82794:1 83109:1 83240:1 83562:3 83887:1 83980:1 84206:2 84484:2 85142:1 85157:1 85162:1 85255:2 85651:2 85732:1 86529:1 86556:1 86562:4 86925:2 87532:1 87720:2 87722:1 89223:2 89972:2 90096:1 90234:8 90256:32 90299:1 90315:2 90329:1 90410:4 90433:1 90494:1 90506:10 91226:17 94406:1 94571:1 94643:2 95143:1 95148:2 95527:3 97172:1 97185:1 97200:1 97410:3 97424:1 97562:1 97921:1 98051:1 98245:2 98271:1 98512:6 98531:1 98538:2 98881:1 98914:2 98968:1 100107:1 100421:1 101188:1 #
-0.0012250816803654456660366278697438 2259:2 5230:1 8664:1 9486:1 9834:1 10481:1 15348:2 19104:2 20876:1 21546:1 25432:1 27784:1 28151:1 29551:1 33930:1 36897:1 39893:1 41720:1 44878:1 45286:1 46621:1 47634:1 48204:1 48242:2 49037:1 49759:1 54397:1 54872:1 56993:1 58287:1 61582:1 63512:1 66943:1 67868:1 67889:1 69680:1 69963:1 76402:1 77386:3 79598:1 81312:1 86914:1 90221:1 90256:1 90583:1 91157:1 91226:2 91264:1 92626:1 96677:1 97833:1 98991:1 100289:1 100388:3 100421:1 101297:1 #
-0.0012250816803654456660366278697438 10481:1 11462:2 11466:1 13137:1 13256:1 15237:1 17714:1 18127:1 21638:1 23722:1 23886:1 25133:2 27341:1 30028:1 30862:1 33237:1 34653:6 38795:1 39347:1 39618:1 41138:1 41270:1 41920:3 42328:1 43412:1 44078:3 44941:2 46637:1 46781:1 47652:1 47869:1 48055:2 48716:1 49037:3 49935:1 51907:1 52083:2 57310:1 57418:1 57531:1 59142:6 59164:1 59255:1 61000:1 61266:2 62223:1 62781:1 63429:2 63828:1 63969:1 64645:1 65880:1 67099:1 67435:2 67455:1 67510:1 67660:1 67889:3 68315:1 68388:1 69028:1 69669:1 69674:1 71866:2 73093:1 75728:1 76644:1 76679:1 76901:1 76902:1 77959:2 80683:1 82513:1 82708:1 82758:1 82816:1 84010:1 84032:1 85255:1 86521:1 87020:1 90234:1 90256:2 90506:4 91226:6 91608:1 94616:1 95399:1 97093:1 98245:1 100388:3 100421:3 #
0.0012250816803654456660366278697438 10481:1 10482:3 10947:1 11467:1 12886:1 13439:2 13753:4 14300:3 14960:1 15062:1 15235:1 15348:3 15779:1 17714:4 21452:2 21546:1 21638:2 22254:1 22511:4 25962:1 26841:1 27278:1 27363:1 27369:1 27415:1 27784:2 28013:1 28151:1 30054:1 30060:1 30861:1 31584:1 32847:1 32930:1 33336:1 34653:6 36212:1 36462:1 36838:1 37411:1 37415:1 40227:1 41020:1 41138:5 41707:1 41920:1 43389:1 43412:1 45120:1 45936:1 46170:2 46621:1 48242:1 49037:3 49456:1 49759:1 49952:1 50200:1 50487:2 50489:1 50980:1 51091:1 51134:1 51907:4 53207:1 56012:1 56947:1 57612:1 58180:1 58235:1 59142:6 59764:1 61266:3 62223:1 64194:2 64981:2 65880:5 65940:1 66943:3 66977:1 67394:1 67537:1 67889:8 68388:1 71866:2 73858:1 74451:1 75001:1 76777:1 76902:1 77752:1 78327:1 78342:1 78684:1 82199:1 82208:1 82424:1 82516:2 83562:3 83877:1 85175:1 86526:1 88801:1 90234:1 90256:7 90372:1 90379:1 90506:6 91226:3 92049:2 93167:1 93177:1 94406:1 95602:1 95677:1 96196:1 96235:1 97110:1 97410:1 97513:1 97947:1 98099:1 98512:1 99312:1 100388:3 100421:1 #
0.0012250816803654456660366278697438 10481:1 10482:1 12886:2 13256:1 13753:3 16728:1 25461:1 26065:1 28244:1 30094:1 34660:1 36603:1 38030:1 38067:1 41138:1 41409:1 42289:1 44693:2 45362:1 46170:1 46781:1 47027:1 47805:1 47943:1 48027:1 48716:2 49680:1 49759:1 52083:2 55992:1 57994:1 58061:1 59597:1 63516:1 65193:1 65880:1 66943:2 67682:1 68388:1 78403:1 82240:1 84097:1 84471:1 85352:1 87214:1 87899:1 89491:1 90221:1 90256:1 90880:2 91226:4 95714:2 97200:2 97562:1 98512:2 98857:1 100388:2 #
0.0012250816803654456660366278697438 17:1 758:2 2259:3 6080:1 10481:1 10482:2 11447:1 12798:1 13126:1 13256:1 13694:3 13753:3 14644:1 15348:2 17714:1 19587:1 21490:1 21546:1 21638:1 21920:1 22145:1 30336:1 31427:1 32620:1 33237:1 33296:1 35310:1 38030:1 41138:1 41412:1 42156:1 43389:1 45804:1 46781:1 48716:1 49598:3 49600:1 49634:1 49759:3 51907:3 52083:1 52158:1 58174:1 60630:1 60656:1 61098:1 62552:1 64645:3 65521:1 65880:1 66264:1 66943:2 67889:1 68315:1 68388:1 69028:1 70389:1 73411:1 73824:1 76614:1 78342:1 79202:1 79382:1 79409:2 84047:1 84048:1 84956:1 86031:1 87720:1 88972:1 89183:1 90053:1 90256:3 90372:1 90479:1 90506:1 91226:5 91294:1 95237:3 95714:1 97410:3 97876:1 98099:1 98245:1 98512:1 100388:2 #
0.0012250816803654456660366278697438 276:1 758:1 1335:1 2259:1 10481:1 28541:1 30006:1 33728:1 39088:1 39095:1 47997:1 47998:3 51349:1 59571:1 78342:1 81555:2 86521:1 #
-0.0012250816803654456660366278697438 10481:1 10535:1 10599:1 10801:1 11845:1 11857:1 11874:1 12394:1 12886:1 13246:1 13377:1 13582:1 14025:1 14758:1 15640:1 15765:1 15820:1 16426:1 17026:1 19134:1 19581:1 19795:1 20214:1 20882:1 21264:1 21299:1 21597:1 21631:1 21652:1 21687:1 21711:1 22380:1 23090:1 23125:1 23171:1 23254:1 24714:1 24842:1 24874:1 25360:1 25436:1 25691:1 26534:1 28388:1 28434:1 29027:1 29468:1 29534:1 29731:1 30203:1 30213:1 30243:1 30824:1 31308:1 33066:1 33121:1 33131:1 33172:1 33768:1 33814:1 34035:1 34185:1 34629:1 34889:1 35358:1 35431:1 35458:1 35470:1 35538:1 35594:1 35626:1 35961:1 36148:1 37007:1 37897:1 37906:1 38161:1 38941:1 39913:1 39926:1 39933:1 39934:1 40877:1 40935:1 41532:1 41546:1 42041:1 42044:1 42365:1 42383:1 42400:1 42429:1 43486:1 43528:1 43565:1 45077:1 45482:1 46252:1 46267:1 46292:1 46781:1 47359:1 47414:1 47443:1 47444:1 48053:1 48092:1 48111:1 48122:1 48162:1 48286:1 48552:1 48713:1 48962:1 49059:1 49252:1 49360:1 50705:1 51774:1 51791:1 52265:1 52306:1 52309:1 52599:1 52728:1 52775:1 52883:1 53222:1 53349:1 53412:1 53473:1 53717:1 53718:1 53750:1 53757:1 53773:1 53777:1 53779:1 53792:1 53821:1 54102:1 54125:1 54403:1 54497:1 54725:1 54895:1 55095:1 55176:1 55184:1 55318:1 55328:1 55916:1 56214:1 56221:1 56943:1 57579:1 57591:1 57665:1 57703:1 57731:1 57755:1 57772:2 58336:1 58433:1 58674:1 58725:1 58766:1 58792:1 61266:1 62415:1 62472:1 62500:1 63284:1 63296:1 63939:1 64559:1 64561:1 64563:1 65108:1 65128:1 65880:1 66065:1 66131:1 66136:1 66193:1 66367:1 66371:1 66404:1 66412:1 66945:1 67155:1 67360:1 67882:1 68358:1 68544:1 68825:1 68993:1 69332:1 69844:1 69956:1 70820:1 71651:1 71660:1 71663:1 72073:1 73090:1 73769:1 74557:1 74668:1 75102:1 75126:1 75211:1 75254:1 75268:1 75274:1 75300:1 75307:1 75363:1 75381:1 75397:1 75406:1 75412:1 75416:1 75892:1 75908:1 75914:1 76546:1 79049:1 79092:1 79483:1 79509:1 79602:1 80242:1 80329:1 80508:1 80581:1 80608:1 80612:1 80679:1 82199:1 84250:1 84727:1 84754:1 84888:1 84952:1 86116:1 86185:1 86252:1 87020:1 89360:1 89389:1 89399:1 89457:1 89458:1 89468:1 90144:1 90161:1 90179:1 90784:1 90839:1 91106:1 91108:1 91183:1 91223:1 91731:1 92601:1 92972:1 93002:1 93042:1 93275:1 93336:1 94846:1 94922:1 94940:1 94962:1 95387:1 95395:1 95403:1 95510:1 95779:1 95799:1 95802:1 95991:1 96335:1 96353:1 96367:1 96368:1 96448:1 96629:1 96684:1 96719:1 96772:1 96786:1 96848:1 97369:1 97408:1 97725:1 97815:1 98438:1 98578:1 98600:1 98606:1 98619:1 98622:1 99465:1 99503:1 99516:1 99519:1 99557:1 99572:1 99576:1 99595:1 99646:1 99650:1 99653:1 99724:1 99852:1 99892:1 100078:1 100205:1 100290:1 100314:1 100421:1 100495:1 100509:1 100559:1 100637:1 100647:1 100656:1 100664:1 100806:1 100933:1 100937:1 100939:1 100958:1 101050:1 101118:1 101257:1 101352:1 #
0.0012250816803654456660366278697438 3359:1 4028:1 5231:1 6082:1 7953:1 10481:1 10482:8 10747:2 11045:1 11443:1 11447:1 11775:2 13012:1 13632:1 13753:4 15348:1 15779:5 15943:1 16274:1 16278:3 16728:1 17922:1 18441:1 18864:1 19104:2 20332:1 21452:1 21638:1 22145:1 22479:2 23589:3 23773:1 23795:2 24229:1 25962:19 26009:1 26127:2 28610:2 29281:1 29352:1 30006:2 30060:1 30094:1 30115:1 30300:1 32422:1 32900:2 33036:1 33237:1 33431:4 34797:1 35961:2 36544:1 36571:1 38207:1 38609:1 38741:1 38760:1 39268:2 40117:1 40259:1 40396:1 40412:1 40413:2 41034:1 41138:8 41200:1 41412:1 41791:1 43119:1 43327:1 43389:1 43903:1 44078:4 46637:2 46642:1 47278:1 47926:1 48002:1 48242:9 48950:1 49037:1 49759:2 49827:1 49913:1 50139:1 50437:2 50487:2 50489:1 50780:1 51268:1 51907:3 52083:1 52511:1 53591:2 55867:1 55868:1 58235:1 59255:1 59398:1 59597:1 62373:1 62982:2 64192:8 64203:1 64645:1 64849:1 64981:1 65521:1 65940:1 66943:3 66977:1 67435:3 67455:1 67510:1 67889:4 68001:1 68026:1 68315:1 68388:2 68416:1 68562:2 69028:1 70623:1 71866:2 71868:1 73408:2 73442:1 73573:1 73788:1 74174:1 74374:2 75728:1 77102:1 77535:17 77544:1 78018:2 78022:3 78025:1 78728:1 80683:1 80790:2 82079:1 82750:4 82758:3 82807:1 84178:6 84663:1 85569:1 85666:1 85674:1 86735:1 87558:5 88044:1 88123:1 88180:1 88583:4 88852:1 89004:2 89945:1 90214:3 90234:2 90256:5 90506:1 90643:1 91135:1 91163:4 91226:17 91264:1 91448:1 91457:1 94406:2 94591:2 94616:3 94696:3 95085:1 95143:1 95891:1 96235:1 97410:5 97470:3 97552:1 97915:2 97958:1 98245:5 98492:1 98512:4 98991:2 99312:8 100107:1 100388:8 100421:16 #
-0.0012250816803654456660366278697438 10481:1 10682:1 11740:1 12027:1 12539:1 12548:1 12568:1 13257:1 13605:1 14025:1 15332:1 15333:1 15347:1 15417:1 16615:1 18592:1 18803:1 18819:1 18993:1 19570:1 20229:1 20241:1 20952:1 20984:1 21590:1 23155:1 23175:1 23563:1 28405:1 28438:1 29121:1 29126:1 29409:1 29549:1 30083:1 30156:1 30192:1 33098:1 33102:1 33156:1 33372:1 33825:1 33826:1 34032:1 34179:1 34188:1 34474:1 34507:1 34514:1 34523:1 34540:1 34630:1 34652:1 34686:1 35132:1 35147:1 35504:1 35797:1 36242:1 36763:1 37797:1 37977:1 38022:1 38169:1 38487:1 38873:1 38920:1 38929:1 39086:1 39896:1 39916:1 39954:1 39957:1 40125:1 40514:1 40729:1 40828:1 41538:1 42070:1 42163:1 42328:1 42419:1 42914:1 42925:1 42932:1 43289:1 43452:1 43471:1 43473:1 43481:1 43524:1 43965:1 44019:1 44353:1 44454:1 44716:1 45414:1 45442:1 45469:1 45483:1 46257:1 46314:1 46316:1 46781:1 47001:1 47022:1 47026:1 47344:1 47345:1 47418:1 47447:1 47457:1 48144:1 49001:1 49056:1 49132:1 49159:1 49180:1 49212:1 49216:1 49345:1 49360:1 51481:1 51906:1 52175:1 52251:1 52298:1 52863:1 52864:1 52880:1 52907:1 53059:1 53097:1 53279:1 53433:1 53470:1 53481:1 53485:1 53589:1 53709:1 53714:1 53755:1 54113:2 54137:1 54202:1 54380:1 54389:1 54711:1 54738:1 54825:1 54877:1 54950:1 54988:1 54999:1 55158:1 55183:1 55337:1 55462:1 55488:1 55493:1 55504:1 55536:1 55544:1 56259:1 57586:1 57717:1 57772:1 57840:1 58417:1 58471:1 58680:1 58716:1 58756:1 59616:1 60486:1 61266:2 61762:1 62348:1 62362:1 62462:1 63343:1 63487:1 63582:1 63903:1 64067:1 64454:1 64730:1 65323:1 65412:1 65572:1 65880:1 66080:1 66090:1 66382:1 66414:1 66486:1 67141:1 67162:1 67729:1 67875:1 67885:1 68552:1 69960:1 70001:1 70849:1 71579:1 71599:1 71621:1 71645:1 72028:1 72044:1 72056:1 75088:1 75148:1 75175:1 75185:1 75219:1 75247:1 75271:1 75286:1 75323:1 75414:1 75423:1 75444:1 75464:1 75476:1 75488:1 75882:1 75907:1 75916:1 75940:1 76532:1 76596:1 79061:1 79072:1 79073:1 79149:1 79586:1 79604:1 80243:1 80251:1 80371:1 80558:1 80579:1 80619:1 81607:1 82010:1 82929:1 82940:1 83436:1 83598:1 84260:1 84392:1 84423:1 84489:1 84755:1 84856:1 85293:1 86115:1 86117:1 86230:1 86243:1 87020:1 88836:1 89298:1 90166:1 90183:1 91103:1 91245:1 91710:1 91734:1 92491:1 92604:1 92658:1 92666:1 92693:1 93115:1 93154:1 93199:1 93254:1 93266:1 93352:1 93953:1 94391:1 94534:1 94565:1 94597:1 94699:1 94739:1 94855:1 94936:1 95344:1 95384:1 95612:1 95776:1 95991:1 96342:1 96675:1 96680:1 96681:1 96815:1 97379:1 97817:1 97829:1 98575:1 99167:1 99173:1 99216:1 99241:1 99475:1 99491:1 99535:1 99550:1 99579:1 99589:1 99729:1 99736:1 99771:1 99803:1 99811:1 99912:1 100253:1 100261:1 100313:1 100421:1 100529:1 100543:1 100545:1 100823:1 100840:1 100936:1 100940:1 101071:1 101084:1 101109:1 101243:1 101274:1 101322:1 #
-0.0012250816803654456660366278697438 2125:1 2261:1 4270:1 10481:1 10482:1 12003:1 12327:1 12886:1 13632:1 13753:3 15779:2 17423:1 17714:1 17896:1 21638:1 22145:1 22732:1 23950:1 25818:1 25962:1 26452:1 29044:1 30935:1 32522:1 34608:1 35269:1 36436:1 37260:1 38963:1 39127:1 41138:2 42491:1 44693:1 45359:1 46170:1 46755:1 48242:1 49037:1 49759:1 50367:1 51907:1 52083:1 53042:1 53200:1 58052:1 58307:1 58860:1 60231:1 60764:1 60768:1 61566:1 62982:1 63969:1 65880:1 67435:2 67455:1 67889:1 68001:1 68315:1 68388:2 68404:1 68814:1 69062:1 70537:1 70608:1 73394:1 73579:1 73605:1 74017:1 75281:1 75585:1 76614:1 76697:1 78193:1 78914:1 80482:2 80683:1 82136:1 82758:1 83566:1 84220:1 84956:1 85671:1 87763:1 88007:1 88044:1 88518:1 89755:1 90256:5 90315:1 90372:1 90880:1 91226:1 94616:1 97709:1 97941:1 98061:1 100421:1 #
-0.00028211277638746787765552936910751 17:3 18:34 210:1 758:9 761:3 798:1 831:1 904:1 966:5 1016:1 1077:1 1101:1 1127:1 1177:2 1309:3 1357:1 1361:1 1363:1 1528:3 1615:1 1632:1 1640:1 1683:1 1684:2 1727:1 1804:1 1842:1 1870:1 1876:1 1878:1 1933:1 1991:1 2013:1 2022:1 2025:2 2076:2 2127:1 2237:1 2259:11 2260:2 2262:7 2938:1 3005:1 3007:1 3087:1 3115:1 3257:1 3471:4 3510:1 3593:1 3663:1 3705:1 3872:1 3879:1 4028:4 4029:4 4030:2 4031:1 4153:2 4620:1 4879:2 5230:4 5393:1 5685:1 5865:2 6080:2 6081:2 6227:1 6596:2 6780:1 6831:1 6862:1 6962:1 7046:3 7053:1 7140:1 7520:1 7675:2 7676:1 7953:2 7954:2 7955:3 8144:3 8245:1 8284:1 8294:2 8299:1 8349:1 8408:2 8437:1 8472:2 8478:2 8558:2 8819:1 8828:2 8901:2 8970:1 9070:1 9172:1 9294:1 9360:1 9385:1 9386:1 9404:1 9487:2 9488:1 9688:1 9702:1 10057:2 10481:1 10482:3 10754:1 11462:1 11846:2 11877:1 12817:2 12886:2 13753:6 14300:2 14350:1 14399:1 14960:1 15348:3 16352:1 17714:3 18004:1 18848:1 20876:1 21638:1 21721:4 22145:1 22149:1 22259:1 23722:1 24769:1 25062:1 25133:1 25962:6 26138:1 26287:1 26398:1 26437:1 26542:6 26976:1 27161:1 27341:4 27784:1 28585:1 28976:2 29356:1 29464:2 29629:2 30277:1 30279:1 30289:1 30943:1 31192:1 31615:1 33143:15 33411:1 34152:2 34169:2 34455:2 34474:1 34653:3 34778:1 35961:1 36130:1 36675:1 37013:8 37146:2 37411:1 38177:1 38185:1 38677:1 38970:4 39442:1 39597:1 41029:1 41138:8 41302:1 41707:2 41920:1 42289:1 44366:1 45493:5 46170:2 46296:1 46305:1 46313:1 46950:1 47375:8 47552:2 48088:1 48242:1 48716:5 48791:1 49037:2 49172:1 49759:6 49909:1 50487:1 50966:1 51060:1 51081:1 51091:1 51399:1 51673:1 51907:2 52112:1 52673:2 53669:1 55567:2 55792:1 56024:1 56251:18 56548:1 57159:1 57258:1 57310:2 57418:1 57434:1 57600:1 57935:1 58006:1 58198:1 58586:1 58721:1 58733:1 59142:2 60231:1 60604:5 61266:3 61633:1 61656:1 62552:1 62982:1 63515:2 64601:1 64849:1 65521:1 65880:2 65921:1 66943:2 66989:1 66999:1 67359:1 67435:1 67455:1 67537:3 67850:1 67889:2 68315:1 68388:2 68818:1 68923:7 68970:1 69209:1 69358:1 69649:1 69680:1 71617:2 71709:1 71866:2 73573:1 73579:2 73956:1 74121:2 74244:1 74706:1 75942:1 76777:1 76901:1 77959:2 77960:1 78198:2 78327:1 78415:1 78514:1 78556:1 79713:1 80683:9 80889:2 80896:1 81379:1 82186:1 82513:1 82573:1 83135:1 83600:1 85258:1 85346:2 85554:1 85651:1 87020:1 87532:2 87795:1 88394:7 88644:2 88852:4 89232:1 89437:1 89459:12 89668:1 90121:1 90188:1 90256:8 90299:1 90506:6 91036:1 91152:4 91226:7 91581:2 91814:1 93120:12 93128:1 93306:1 94278:1 94616:5 94617:1 94906:2 95814:1 96003:2 96235:1 96374:10 96653:4 96724:6 96860:1 97410:1 98512:3 98538:1 98902:1 98991:1 99257:3 99312:4 99405:3 99569:18 100388:3 100421:4 101186:1 101187:1 #
-0.0012250816803654456660366278697438 17:5 758:1 1175:1 1176:1 2057:1 2078:1 2087:1 2112:1 2171:1 2260:1 2262:1 2852:1 5230:1 7953:4 8827:3 10481:1 12365:1 13798:1 13929:1 14108:1 14300:1 15348:2 16728:1 16816:1 17714:1 17716:1 19971:1 22145:1 25227:1 26009:1 26976:1 27847:1 28801:1 30271:1 30300:1 33237:1 35692:1 37234:1 39270:1 40595:1 41518:1 41707:1 41859:1 42605:1 43389:1 44170:1 44356:1 44693:1 44842:1 46042:1 46173:1 46781:1 47805:1 48057:1 48716:4 49326:1 49759:5 53794:1 54924:1 55567:2 56769:1 56935:1 58305:1 58408:1 58860:1 58964:1 59599:1 60604:2 61403:1 62076:1 62383:1 63949:1 63952:1 64981:2 65172:1 65880:1 66422:1 66474:2 66541:1 66999:1 67219:1 67435:1 67474:1 67597:1 68318:1 68923:1 70343:1 70627:1 71866:2 72647:1 72780:1 73295:1 73579:1 73979:2 76230:1 76614:2 80683:3 81651:1 82272:1 83044:1 83188:1 83466:1 83495:1 85699:1 86777:1 87822:1 88852:2 89569:1 90234:1 90315:1 91094:1 91226:3 91302:1 91481:1 91575:1 93278:2 95399:1 97410:2 97649:2 97876:1 97915:1 97921:1 98384:1 98538:1 99205:1 99743:1 99988:1 100371:2 100421:1 #
0.0010321282088836642668733256655855 759:1 1526:1 1528:1 2259:1 2499:2 4028:1 4364:1 5161:1 7490:1 8074:2 8561:1 8827:2 8829:1 9190:1 9486:1 10481:1 10482:12 11039:1 11299:2 11443:1 11466:1 11775:1 12143:2 12190:1 12886:1 13126:1 13137:3 13407:3 13632:3 13753:37 14300:1 14665:1 14681:1 14960:7 14965:1 15348:5 15589:2 15590:2 15779:4 16354:2 16663:1 16673:1 16816:2 16930:3 17619:1 17714:1 17808:1 17835:1 17836:1 17896:3 18061:1 18869:2 18871:1 20035:1 20404:2 20734:1 21164:1 21452:2 21454:23 21638:3 21992:3 22145:3 22350:2 22747:3 23238:1 25263:1 25479:1 26283:3 26365:1 26501:1 26628:1 26789:2 26829:2 27031:1 27161:1 27162:1 27186:1 27460:1 27461:1 27482:1 27844:8 27918:1 28151:1 28205:2 28244:1 28610:6 28764:1 29281:3 29352:1 29769:1 30372:2 30707:2 31430:1 31655:2 32369:1 32515:1 32576:1 32622:2 32698:1 33036:1 33376:1 33411:1 33717:1 34416:1 34592:2 34660:1 34716:1 34729:3 34951:1 36575:1 36659:1 36700:5 36781:1 37415:1 37642:1 37949:3 38044:2 38052:1 38076:1 38131:1 38179:1 38464:1 38507:1 38521:1 38763:1 39270:1 39442:1 39847:2 40133:3 40227:2 40458:1 40819:1 40957:1 41029:1 41036:1 41138:5 41159:1 41482:1 41920:1 42289:1 42328:1 42754:5 43119:1 43134:1 43138:1 43389:1 43744:1 43903:2 44494:1 44941:1 44972:1 45557:1 45936:1 46079:2 46170:11 46637:1 46781:2 47217:1 47565:1 47929:1 48027:1 48716:1 48953:1 49037:1 49381:1 49499:3 49709:1 49759:24 49909:5 50122:2 50173:1 50251:1 50487:1 51189:2 51399:2 51529:1 51552:1 51554:5 51556:3 51558:2 51907:1 52083:4 53794:1 55633:1 55992:1 56012:1 56285:1 56336:1 56457:2 56834:1 57381:3 57739:1 58052:1 58174:1 58988:3 59205:1 59240:1 59255:1 59796:1 60231:1 60846:1 61726:1 61866:1 62922:1 62982:4 64386:1 64573:1 64645:2 64690:2 64981:1 65658:4 65790:1 65821:3 66010:1 66943:25 66963:1 67049:1 67180:1 67435:6 67680:2 67687:1 67823:1 67889:3 68322:1 68388:30 68507:1 68562:3 68756:2 69548:1 69606:1 69678:3 70254:1 70446:1 70641:1 71088:1 71508:1 71678:1 71748:1 72555:1 72837:3 73550:1 74027:1 74066:1 74112:1 74243:1 74278:1 74344:2 74374:1 74828:1 75193:1 75588:1 75634:1 75762:1 76417:4 76418:1 76614:2 76908:1 77277:1 77480:1 77589:1 77599:1 77692:1 77752:1 77757:1 77759:1 77859:2 77864:1 78113:1 78208:1 78342:1 78346:1 78623:1 78693:1 78728:1 78830:2 78914:3 78918:1 79215:1 79335:1 80433:1 80683:5 80889:3 80896:2 81555:1 81557:1 82136:2 82215:1 82272:1 82602:1 82855:2 83110:1 83222:3 83887:2 84206:1 84745:1 84844:1 84956:1 85175:1 85255:1 85352:1 85471:1 86562:1 86606:1 87200:1 87214:1 87293:2 87688:1 87771:1 89013:2 89223:1 89755:1 89817:1 89945:1 89954:1 89972:1 90212:3 90234:10 90256:18 90299:4 90315:2 90410:9 90433:3 90506:4 90571:3 90606:2 90643:1 90880:1 91226:17 91264:2 91333:1 91441:1 91447:1 91477:1 91939:2 92072:1 93005:1 93686:5 93769:1 94007:1 94419:1 94643:2 95399:4 95714:3 97200:1 97326:1 97410:24 97552:1 97562:3 97876:2 97915:1 97921:2 97947:2 97958:1 98051:1 98065:2 98245:4 98512:2 98857:1 98959:1 100107:1 100117:1 #
-0.0012250816803654456660366278697438 17:2 2125:1 3129:1 3469:1 6032:2 10481:1 10482:2 12275:1 16328:1 16386:1 22852:1 23157:1 23871:1 25962:1 26410:1 27113:1 29629:1 30242:3 32815:1 34389:1 34466:2 36274:1 37776:2 44663:1 52441:1 56903:1 57140:1 57506:1 64914:2 65856:1 65959:2 65979:1 65980:1 67969:1 68364:1 69583:2 71998:1 73758:1 75668:1 78883:1 82186:1 84178:2 85621:1 88170:2 93504:1 95984:2 96147:1 96244:1 97470:2 99003:1 #
-0.0012250816803654456660366278697438 19:1 2259:1 5230:1 10481:1 10482:8 10687:2 10747:2 11162:1 11462:1 11650:1 12886:1 13086:1 13137:2 13241:1 13256:4 13513:1 13632:2 13753:21 14087:2 14300:1 14323:1 14628:1 14647:1 14960:1 15348:4 15463:1 15475:1 15779:3 16224:1 16354:1 16512:1 16728:1 16930:1 17714:3 17896:2 17931:1 17938:1 18004:1 21437:1 21452:6 21490:2 21638:2 21975:1 21992:2 22732:1 23703:1 23950:1 24812:2 25061:1 25151:1 25171:1 25822:1 26342:1 27461:1 28151:2 28263:1 28542:1 30443:1 30444:1 30773:1 31465:1 32053:2 32574:1 33237:3 33477:1 33506:1 33649:1 33672:1 34058:1 34416:1 34653:1 34660:1 34716:1 35312:1 36189:1 36355:1 36436:1 38067:1 38243:1 38586:1 38591:1 38970:1 39219:1 40044:1 40091:1 40208:1 40227:1 40259:1 40396:2 41138:9 41920:4 42294:1 43389:3 43790:2 44085:1 44246:1 44941:2 45557:2 45911:1 45936:1 46079:2 46170:7 46317:3 46402:1 47052:1 47094:1 47281:1 47477:1 47634:1 48002:2 48055:2 48464:2 48716:33 49037:1 49759:5 49935:3 50344:1 50487:1 51907:4 52083:6 53135:1 53520:1 53521:2 53669:1 54189:1 54924:1 55992:1 56182:1 56390:1 57081:2 57490:2 57531:1 58006:2 58287:1 58988:1 59142:1 59255:2 59597:1 60137:1 60604:6 61033:1 62720:1 62781:1 62897:1 62900:1 62982:2 63147:1 63516:3 63969:10 64033:1 64573:1 64981:2 65085:1 65193:1 65521:1 65586:1 65880:1 66010:2 66943:7 66963:4 66999:1 67435:2 67455:3 67537:1 67889:6 68315:1 68318:1 68388:2 68416:2 69877:3 70043:1 70343:1 70386:1 70616:1 71868:1 71998:1 73862:1 74440:1 75013:1 75717:1 75745:1 76619:1 76728:1 77129:1 78545:1 78779:1 80883:1 82240:2 82266:1 82573:1 82989:1 84065:2 84220:1 84478:1 84635:1 84956:5 85450:1 85773:2 86016:1 86638:1 86817:1 87247:1 87584:1 87688:1 87698:1 87899:1 88123:2 88852:1 89004:2 89071:1 89479:1 89569:1 89755:3 90062:1 90214:1 90234:10 90256:15 90315:1 90372:1 90410:1 90433:2 90477:1 90506:4 90571:1 90574:2 90606:1 90626:1 90643:1 90880:4 91226:31 91441:1 91457:1 91477:1 91881:1 92211:1 92215:1 92522:1 92803:1 93504:1 94458:1 94616:1 94643:1 97015:1 97093:2 97094:3 97200:5 97326:1 97552:1 97649:1 97709:1 97876:3 97915:2 97958:1 98512:3 98531:1 98857:4 98870:2 98968:1 98991:2 100388:8 100421:2 #
0.0012250816803654456660366278697438 17:3 2259:3 6080:1 10481:1 11419:2 12747:1 12886:2 13137:1 13753:5 18441:2 18895:2 20055:1 21721:2 22145:2 25133:2 25915:1 25962:1 32395:1 33296:1 33728:4 33733:1 34012:1 34797:1 38030:1 40125:2 41029:1 41034:1 41707:1 44078:1 47115:1 47634:1 48067:1 48242:1 49759:2 49909:1 50905:1 51907:1 52083:1 56025:1 59571:2 59573:1 60231:2 61777:7 65880:1 66943:1 67435:3 68469:1 69028:2 69735:2 70016:2 71285:1 73846:1 75837:1 80683:2 80995:1 82382:1 85081:1 86757:1 90095:1 90116:1 90256:6 90329:1 90506:1 91226:9 94386:1 94643:1 95666:1 95714:1 97093:1 98361:3 98857:1 99312:1 100388:3 100421:3 101033:1 #
-0.0012250816803654456660366278697438 758:2 1682:1 6241:2 7048:2 8829:2 9486:1 9659:1 10481:1 11767:1 11803:1 12886:1 13632:1 13753:1 14667:1 15348:3 15779:1 17714:1 17896:1 17922:1 21095:1 21722:1 21992:1 25323:1 26968:1 29348:2 30188:1 31192:1 31296:1 31615:1 31735:1 34653:1 36835:1 37202:1 37997:1 41138:1 41707:1 43119:1 44209:5 46170:1 47720:1 48901:1 51897:1 51907:2 52083:2 54924:1 59142:1 59975:1 61266:1 63113:1 65085:1 66703:1 66943:2 67010:1 67435:1 67889:1 68388:1 69550:1 71813:2 71819:1 72647:1 73093:1 73800:1 74066:2 74763:1 76908:1 77785:1 78350:1 78403:2 79382:1 80683:4 85175:1 85255:1 85352:1 89569:1 89721:1 90046:1 90256:3 90506:3 91226:3 94616:1 97181:2 98245:1 100107:2 100388:4 100421:3 #
-0.0012250816803654456660366278697438 1628:1 1782:1 3820:1 6889:1 7855:1 8363:1 10481:1 12112:1 13632:1 22350:1 22663:1 23950:1 25962:1 26009:1 28078:1 33477:1 33545:1 34121:1 35961:1 42860:1 46170:2 47027:1 47647:1 49037:1 51115:1 53135:1 56012:1 56182:1 59597:1 61398:1 62190:1 62516:1 65749:1 66264:1 66657:1 66963:1 67435:1 69519:1 71088:1 71866:1 73453:1 74374:1 75031:1 76619:1 76644:1 77102:1 81348:1 81741:1 82855:1 83934:1 84500:1 88852:1 88972:1 90234:1 92674:1 97244:1 97304:1 98061:1 98840:1 #
0.00052338391473261581133408215649183 210:1 729:1 1419:1 2262:2 9486:1 9912:1 10481:1 10482:1 12082:1 15603:1 15608:1 16107:1 25495:3 29066:1 35260:2 38363:1 40208:1 49759:1 56790:1 59650:1 61343:2 61644:1 62332:1 76614:1 82573:1 84174:1 89961:1 90256:2 90329:1 91226:1 #
-0.0012250816803654456660366278697438 758:4 1934:1 4029:1 6690:1 7953:1 9487:1 10481:1 10482:2 12817:1 15779:4 24546:1 25962:2 33614:4 44078:1 44463:1 46621:1 46781:1 48242:2 59597:1 64081:1 65521:1 68318:1 70374:4 70949:2 76614:1 79598:1 80622:1 80683:1 90221:1 93458:1 95025:1 95813:1 99312:2 99405:2 #
0.0012250816803654456660366278697438 7046:1 10481:1 10482:1 14709:1 15585:1 15916:1 17396:1 33545:1 51907:1 59741:2 66943:1 68388:1 73273:1 78914:1 86735:1 94458:1 #
0.0012250816803654456660366278697438 10125:1 10128:1 10481:1 10482:2 13753:4 14300:1 15177:1 15779:1 15961:1 17714:1 18516:1 19058:1 20669:1 21490:1 29890:1 34716:1 36383:1 38030:1 38908:1 39629:1 41138:2 41707:1 43412:1 48716:1 49759:1 50467:1 51907:1 52083:2 52345:2 53669:1 57159:1 57490:1 60231:1 60604:1 61726:1 62897:2 62982:1 63235:1 63969:1 65614:1 66010:1 66943:1 68318:1 68416:1 71866:1 76614:1 76908:1 78984:1 81359:1 82240:1 89055:1 89842:1 90214:1 90221:1 90234:1 90256:6 90548:1 90643:1 91226:4 93686:1 94406:1 94728:1 96951:1 97410:1 97649:1 97665:1 98512:1 98991:1 100388:2 #
0.0012250816803654456660366278697438 10481:1 10482:2 27601:1 46170:2 48716:1 62048:1 64645:1 75745:1 90479:1 91226:1 97410:1 97915:1 100388:1 #
0.0012250816803654456660366278697438 3359:1 4028:1 5231:1 6082:1 7953:1 10481:1 10482:8 10747:2 11045:1 11443:1 11447:1 11775:2 13012:1 13632:1 13753:4 15348:1 15779:5 15943:1 16274:1 16278:3 16728:1 17922:1 18441:1 18864:1 19104:2 20332:1 21452:1 21638:1 22145:1 22479:2 23589:3 23773:1 23795:2 24229:1 24796:4 25962:19 26009:1 26127:2 28610:2 29281:1 29352:1 30006:2 30060:1 30094:1 30115:1 30300:1 32422:1 32900:2 33036:1 33237:1 33431:4 34797:1 35961:2 36544:1 36571:1 38207:1 38609:1 38741:1 38760:1 39268:2 40117:1 40259:1 40396:1 40412:1 40413:2 41034:1 41138:8 41200:1 41412:1 41791:1 43119:1 43327:1 43389:1 43903:1 44078:4 46637:2 46642:1 47278:1 47926:1 48002:1 48242:9 48950:1 49037:1 49759:2 49827:1 49913:1 50139:1 50437:2 50487:2 50489:1 50780:1 51268:1 51907:3 52083:1 52511:1 53591:2 55867:1 55868:1 58235:1 59255:1 59398:1 59597:1 62373:1 62982:2 64192:8 64203:1 64645:1 64849:1 64981:1 65521:1 65940:1 66943:3 66977:1 67435:3 67455:1 67510:1 67889:4 68001:1 68026:1 68315:1 68388:2 68416:1 68562:2 69028:1 70623:1 71866:2 71868:1 73408:2 73442:1 73573:1 73788:1 74174:1 74374:2 75728:1 77102:1 77535:17 77544:1 78018:2 78022:3 78025:1 78728:1 80683:1 80790:2 82079:1 82750:4 82758:3 82807:1 84178:6 84663:1 85569:1 85666:1 85674:1 86735:1 87558:5 88044:1 88123:1 88180:1 88852:1 89004:2 89945:1 90214:3 90234:2 90256:5 90506:1 90643:1 91135:1 91163:4 91226:17 91264:1 91448:1 91457:1 94406:2 94591:2 94616:3 94696:3 95085:1 95143:1 95891:1 96235:1 97410:5 97470:3 97552:1 97915:2 97958:1 98245:5 98492:1 98512:4 98991:2 99312:8 100107:1 100388:8 100421:16 #
-0.0012250816803654456660366278697438 10481:1 11462:2 11466:1 13137:1 13256:1 15237:1 17714:1 18127:1 21638:1 23722:1 23886:1 25133:2 27341:1 30028:1 30862:1 33237:1 34653:6 38795:1 39347:1 39618:1 41138:1 41270:1 41920:3 42328:1 43412:1 44078:3 44941:2 46637:1 46781:1 47652:1 47869:1 48055:2 48716:1 49037:3 49935:1 51907:1 52083:2 57310:1 57418:1 57531:1 59142:6 59164:1 59255:1 61000:1 61266:2 62223:1 62781:1 63429:2 63828:1 63969:1 64645:1 65880:1 67099:1 67435:2 67455:1 67510:1 67660:1 67889:3 68315:1 68388:1 69028:1 69669:1 69674:1 71866:2 73093:1 75728:1 76644:1 76679:1 76901:1 76902:1 77959:2 80683:1 82513:1 82708:1 82758:1 82816:1 84010:1 84032:1 85255:1 86521:1 87020:1 90234:1 90256:2 90506:4 91226:6 91608:1 94616:1 95399:1 97093:1 98245:1 100388:3 100421:3 #
-0.0012250816803654456660366278697438 10481:1 16816:1 40117:1 51907:2 64192:1 90506:1 99138:1 100421:1 #
0.0012250816803654456660366278697438 2260:1 4028:1 4029:1 10481:1 10482:2 13256:1 13753:2 17714:1 19851:2 22002:1 22747:1 28078:1 40273:1 43753:1 45557:1 46755:1 48716:2 50927:1 52083:1 53794:2 56748:1 65789:1 66943:3 66977:1 66981:1 67846:2 68562:1 70474:1 76189:2 78328:1 80836:1 83188:1 83562:1 83895:1 85527:1 86887:1 86925:1 87791:1 88180:1 90212:1 90234:2 90256:1 90506:1 91226:1 91333:1 94616:1 95729:1 96091:1 97947:1 98512:1 98968:1 98991:2 100107:1 100388:1 #
-0.00087571794315791334599452522269303 759:1 2259:2 3591:1 4028:3 5230:2 7046:1 10481:1 10482:15 10687:1 10747:1 11278:1 12062:1 12082:1 12112:1 12132:2 12886:4 13086:1 13137:1 13256:1 13753:30 14072:1 14087:1 14300:1 14318:2 14320:1 14960:1 15177:1 15348:2 15470:1 15535:1 15779:2 16530:1 16671:1 16728:3 17390:1 17508:2 17679:1 17714:4 17744:1 17803:1 17835:1 17842:3 17892:1 17896:3 18004:1 18419:1 18516:1 18529:1 19404:1 19406:1 19435:1 19972:1 20035:1 20062:1 20426:1 20665:1 20779:1 21145:1 21166:1 21425:1 21490:3 21638:2 22145:5 22514:1 22520:1 22732:1 22835:4 22932:1 22999:1 23481:1 23929:1 24678:1 24983:1 25029:1 25744:1 25962:2 26009:3 26046:1 26065:1 26534:1 26706:1 27636:2 28151:1 28309:1 28317:1 28548:1 28550:2 28937:1 28948:1 29766:2 29782:1 30094:1 30444:1 30551:1 31176:1 31474:1 32053:1 32121:1 32909:1 33237:1 33287:2 33319:1 33338:1 33709:1 33920:1 33930:1 33953:1 34021:2 34096:1 34331:1 34660:1 34797:1 36599:1 36600:1 36659:1 36779:1 38030:1 38067:1 38078:1 38297:1 38497:1 38778:1 38908:1 39000:1 39089:1 39135:1 39219:1 39432:1 39847:1 40044:1 40079:1 40085:1 40380:1 40457:1 40466:1 40492:1 40801:1 41029:1 41034:1 41086:1 41138:6 41168:1 41562:1 41798:1 41806:1 41859:1 41920:3 42165:1 42333:1 42367:1 43389:7 43744:1 44078:2 44142:1 44170:1 44356:2 44693:1 44849:1 44931:1 44967:1 45557:1 45580:2 45625:1 45899:2 45903:1 45936:1 45953:1 46079:7 46170:6 46317:5 46482:2 46755:5 47052:1 47193:2 47281:1 47334:1 47812:1 48004:3 48055:1 48331:1 48667:1 48716:31 49037:5 49377:1 49759:15 50832:1 51442:1 51497:1 51575:1 51907:13 52083:18 52154:1 53141:1 53220:1 53301:1 53592:1 53669:4 53701:2 54189:1 54297:1 54538:1 54872:1 54907:1 54924:1 54930:1 55169:1 55992:1 56010:1 56024:1 56417:1 56769:2 56786:1 57081:1 57159:1 57166:1 57490:1 57600:1 58006:1 58011:1 58052:1 58061:1 58260:1 58271:1 58598:1 58860:2 59255:1 59350:1 60136:1 60604:8 60642:1 61656:1 61690:1 61726:2 62719:1 63027:1 63113:2 63235:1 63674:1 63703:1 63969:10 64080:1 64198:1 64579:1 64645:2 64652:1 65276:1 65521:6 65767:1 65880:5 65921:1 66010:5 66021:1 66347:1 66943:8 66963:1 67101:1 67435:8 67441:2 67455:2 67537:7 67721:1 67889:8 68242:1 68315:2 68388:2 68416:2 68507:1 68684:1 68811:2 69472:1 69591:1 69678:3 70131:1 70343:3 71022:1 71404:1 71405:1 71678:1 71689:1 71878:1 72217:1 72553:1 73721:2 73819:1 73824:1 76080:1 76159:1 76614:3 76644:1 76704:1 76728:2 77974:1 78096:1 78130:1 78163:1 78403:1 79275:1 79319:5 79734:1 79925:2 79935:2 79943:1 80683:13 80780:1 81134:1 81227:1 81365:1 81815:1 81861:1 82158:1 82171:1 82240:1 82552:1 82709:1 82887:1 83188:7 83222:1 83517:1 83732:1 83762:1 84065:1 84174:1 84185:1 84237:1 84503:1 84737:1 84944:1 84956:4 84993:1 85053:1 85255:2 85273:2 85352:1 85529:1 85903:1 85993:1 86501:1 86586:1 86619:2 86851:1 86864:1 87040:1 87372:1 87976:1 88326:1 88496:1 88852:3 89004:3 89013:1 89052:1 89315:1 89792:1 90234:8 90256:43 90299:1 90315:2 90329:1 90372:2 90433:4 90479:2 90494:1 90506:5 90571:1 90573:1 90649:1 90765:1 90857:1 90880:2 91226:33 91264:1 91333:1 91441:3 91528:1 91592:1 91604:1 91845:1 92129:1 92203:1 92211:1 92626:1 92701:1 93686:1 93769:1 94069:1 94406:2 94485:1 94643:3 94649:2 94997:1 95714:2 95879:5 96235:3 96895:1 96951:2 97015:1 97097:1 97100:1 97200:8 97326:2 97410:1 97552:1 97649:2 97709:2 97876:3 97915:2 97921:2 97947:1 97959:1 98000:1 98051:1 98059:1 98177:2 98245:6 98271:1 98338:1 98512:3 98747:1 98799:1 98857:1 98902:1 98914:3 98991:4 99627:1 100159:1 100388:8 100408:2 100421:6 #
-0.0012250816803654456660366278697438 19:1 3186:1 5092:1 10481:1 10482:2 12886:1 14960:2 18127:1 18516:1 23950:1 28448:1 30094:1 33237:1 33336:1 35111:1 35961:1 39299:1 40216:1 41138:1 41396:1 44246:1 44356:1 46121:1 47312:1 48242:1 49759:1 50437:1 51907:1 53163:1 53669:1 56074:1 57081:1 62190:1 62200:1 62897:1 64119:1 64981:1 65880:2 66943:1 67435:1 67441:1 67537:1 68388:1 68562:1 71384:1 75863:1 76402:1 76614:1 76654:1 76901:1 84146:1 90214:1 90234:1 90372:1 90506:1 90511:1 90880:1 91226:1 93062:1 97513:1 97636:1 100388:2 #
-0.0012250816803654456660366278697438 1693:1 1990:1 3899:1 4137:1 7938:1 8844:1 10481:1 13940:1 15348:1 15463:1 16728:1 25494:1 26206:1 26414:1 28576:1 31728:1 31957:1 33709:2 34048:1 34416:1 34736:1 35961:1 41086:1 41447:1 41920:1 43389:1 44941:1 46401:1 46402:2 47571:1 48716:1 53669:2 54512:1 56332:1 56769:1 58052:1 58157:1 60604:1 62048:1 62516:1 62781:1 64849:1 65917:1 67099:1 71088:1 71720:1 71866:1 73858:1 80843:1 81365:1 81658:1 83860:1 84920:1 85761:1 87532:1 87926:1 88197:1 88852:1 90372:1 91226:1 91441:1 92137:1 93686:1 96066:1 97262:1 97450:1 97958:1 98512:1 98857:1 98991:1 #
-0.0012250816803654456660366278697438 17:2 759:1 2125:1 4028:1 8143:1 10481:1 10482:1 11296:1 12886:1 15779:1 17922:1 23929:1 24907:1 32722:1 37273:1 41138:1 41920:1 44078:1 45662:1 45936:1 51185:1 51907:1 55992:1 57756:1 61920:1 64981:1 65790:1 65880:1 66943:1 67949:1 71929:2 73573:1 74706:1 78693:1 78728:1 79753:1 84032:1 85075:1 90234:1 90256:2 91264:1 91417:1 93686:1 94616:1 94745:1 97326:1 97555:1 100421:1 #
0.0012250816803654456660366278697438 221:2 4378:1 6374:1 8828:2 9548:2 10481:1 10482:2 10966:1 13137:1 13753:1 15779:1 17714:2 18516:1 21490:1 21638:1 21992:1 22145:1 25962:1 26534:1 27341:2 30843:1 33237:1 34797:1 35961:2 46170:1 47634:2 48716:2 49759:2 50437:1 51907:1 52083:1 56166:1 60231:1 60604:1 63969:2 65880:1 66943:1 67455:1 71689:1 76654:1 84065:1 90372:1 90410:1 91226:2 92978:1 95292:1 96713:1 98245:1 98512:1 99950:1 100388:1 #
-0.0012250816803654456660366278697438 6080:1 10481:1 13753:2 14300:1 14599:1 14960:2 15348:2 15779:1 18516:1 20652:1 21490:1 23406:1 24988:1 25827:1 25962:1 28151:1 30608:1 31879:1 32053:1 33960:1 35609:1 38067:1 39576:1 41635:1 41920:1 42491:1 43805:1 44271:1 45493:1 45540:1 46079:1 46170:1 46755:1 48067:1 48242:1 48716:2 52117:1 54189:1 54924:1 57930:1 58069:1 58233:1 58686:1 60675:1 64573:1 65880:2 66943:1 67455:2 67467:1 67889:1 68080:1 68388:2 73579:1 74909:1 76778:1 79856:1 80683:1 82382:1 82699:1 83188:1 83581:1 85631:1 86494:1 87470:1 90234:1 90256:4 90315:1 90433:3 96491:1 96782:1 96791:1 97200:1 97279:1 97649:1 97709:1 98512:2 100388:1 100421:1 #
0.0012250816803654456660366278697438 10481:1 14300:1 14644:1 14960:1 16173:1 22145:1 24812:1 30054:1 32576:1 35226:2 48716:1 65880:1 66943:1 67435:2 67889:1 87532:1 89060:1 90234:1 90256:1 90315:1 90433:1 91226:1 91264:1 91441:1 97410:1 97941:1 98840:1 #
-0.0001649400567733041598952187234417 18:2 19:3 210:1 758:4 759:3 761:4 1014:1 1175:1 1526:1 1682:1 2259:8 2260:2 2499:1 2894:2 3359:1 4028:3 4030:1 4817:1 4818:1 5230:1 6080:2 7046:1 7048:1 7953:1 8227:1 8397:1 8827:2 9486:1 10481:1 10482:23 10747:2 10754:1 10831:1 10980:1 10983:11 11036:2 11041:1 11296:1 11419:1 11443:1 11450:1 11777:1 11815:1 12144:1 12156:1 12464:2 12886:12 13068:1 13087:1 13126:1 13137:8 13177:1 13513:2 13632:2 13753:59 14005:1 14300:4 14303:1 14576:1 14578:4 14583:1 14654:1 14678:1 14681:1 14960:20 15206:2 15348:15 15646:1 15779:16 16107:1 16237:1 16288:1 16289:3 16354:4 16671:4 17438:1 17714:36 17808:1 17835:2 17896:2 17922:1 18205:1 18420:2 18869:14 20621:2 21452:1 21490:3 21638:11 21721:3 21925:1 22145:8 22331:1 22646:1 22665:1 22732:6 22999:1 23000:3 23002:2 23481:1 23722:1 23930:1 24757:2 25461:1 25784:1 25831:1 25987:1 26147:1 26236:1 26278:1 26295:1 26296:1 26338:1 26415:1 26478:1 26485:1 26534:1 26611:2 26625:2 26833:1 27147:1 27158:1 27162:2 27293:2 27514:1 27608:11 27613:1 27950:1 28078:11 28263:1 28578:2 28582:1 29281:7 29283:1 29629:2 29706:2 29766:1 30006:2 30094:3 30115:1 30300:1 30310:3 30315:2 30444:1 30772:1 30993:1 31285:1 31425:2 31474:1 31488:1 31611:1 31615:2 31729:1 31735:1 31763:2 32117:1 32124:1 32138:1 32384:2 32514:1 32638:1 32930:1 33007:1 33311:1 33411:1 33494:2 33666:2 33709:1 33879:1 33892:1 34048:1 34260:4 34569:1 34580:1 34653:3 34713:1 34736:1 34982:1 34983:2 35297:1 35434:1 35561:1 35716:1 36383:1 36537:1 36572:1 36759:1 36824:1 37480:3 37642:1 37721:1 37722:1 38030:5 38067:5 38181:1 38461:3 38527:1 38559:2 38563:1 38611:1 38620:1 38768:1 38970:1 39000:1 39040:2 39270:1 39847:1 40072:1 40091:4 40095:3 40118:3 40133:2 40481:2 40492:1 40752:1 41034:2 41035:1 41036:1 41138:9 41235:1 41920:2 42289:4 42328:5 42432:1 43130:1 43135:1 43165:1 43744:1 44409:1 44581:4 44583:3 44704:1 44917:1 45493:1 45662:1 45899:1 46170:8 46181:1 46339:1 46414:1 46637:1 46690:2 46691:1 46796:3 47281:1 48067:1 48331:4 48716:3 48914:2 49037:3 49110:1 49163:1 49453:1 49634:1 49703:1 49759:44 49884:1 49913:1 49945:1 49990:1 49993:2 50004:3 50051:1 50093:1 50207:1 50258:2 50410:1 50664:4 50669:1 50734:1 50905:1 50906:2 51001:5 51068:1 51108:1 51182:2 51443:1 51446:4 51625:3 51907:21 52083:9 52154:2 52158:1 53216:1 54189:1 54583:1 54595:1 54937:1 55929:1 56143:1 56407:1 56748:1 56822:2 56827:3 57026:1 57028:1 57032:2 57033:4 57081:4 57159:1 57166:3 57258:2 57418:3 57527:2 58061:1 58174:3 58177:1 58180:1 58287:1 58294:2 58595:1 58980:1 59142:2 59164:1 59182:1 59240:3 59243:1 59255:1 59433:1 59526:1 59533:1 59583:2 59586:1 59771:3 60002:2 60231:10 60656:1 61364:1 61793:1 61866:3 61979:1 62137:1 62223:1 62551:1 62575:1 62580:1 62597:1 62598:2 62599:2 62982:19 62998:1 63113:1 63165:1 63172:4 63174:1 63674:1 64358:1 64573:1 64661:1 64981:8 65085:4 65342:2 65521:3 65658:1 65880:6 65899:1 66264:7 66272:1 66702:1 66703:1 66751:2 66943:81 66963:1 66999:1 67435:9 67455:4 67537:2 67573:1 67649:1 67682:1 67846:5 67889:9 68026:1 68315:3 68388:4 68400:1 68416:7 68448:1 68469:1 68502:2 68531:1 68562:9 68923:1 69332:1 69536:3 69597:1 69652:1 69723:9 69728:1 69900:1 69902:1 70134:1 70343:3 70374:9 70385:3 70386:2 70474:2 70608:2 70616:1 70641:1 70966:1 71187:1 71300:1 71303:1 71525:1 71678:1 71680:1 71829:1 72171:1 72173:1 72610:2 72757:1 72837:1 73000:1 73004:1 73093:2 73285:2 73411:2 73429:1 73481:1 73532:1 73573:2 73577:1 73734:1 73819:1 73858:2 73861:1 73940:4 74028:1 74111:1 74112:1 74116:1 74117:2 74244:1 74268:1 74269:1 74282:1 74377:3 74380:1 74450:1 74451:2 74473:1 74688:1 75613:1 76286:1 76402:2 76614:1 76698:1 76716:1 76778:1 76893:1 76901:1 76902:1 77270:3 77271:1 77273:1 77276:4 77352:1 77497:1 77544:2 77587:2 77718:1 77752:1 77754:1 77762:1 78022:1 78342:1 78353:1 78684:1 79285:1 79648:10 80090:1 80426:1 80683:1 80789:1 80792:8 80889:2 80896:1 81324:1 81325:1 82166:2 82521:1 82573:1 82794:1 82851:2 83126:1 83318:2 83562:2 84146:1 84237:3 84956:1 85255:3 85678:1 86529:1 86566:1 86592:1 86757:1 86862:1 87389:1 87631:2 87720:9 87763:1 87866:1 88180:2 88811:4 89025:1 89569:12 89827:1 89972:4 90212:14 90234:14 90256:129 90257:1 90299:1 90315:1 90329:1 90372:7 90379:2 90433:1 90477:1 90506:16 90571:2 90606:5 90676:1 90857:1 90880:3 90903:1 91226:45 91264:1 91661:1 91814:1 91888:1 92080:1 92128:1 92129:1 92137:1 92205:1 92323:1 92937:3 92978:1 93556:1 93686:3 93712:1 93932:1 94014:1 94096:1 94149:1 94264:1 94343:1 94616:18 94643:1 94665:1 94716:1 94791:1 95017:1 95148:5 95252:1 95436:6 95437:18 95438:2 95714:6 95829:3 97326:1 97410:11 97513:1 97915:3 97930:1 97947:4 98051:4 98245:35 98445:1 98512:9 98538:2 98857:1 98870:1 98902:3 98914:7 98941:4 98968:1 99405:2 100107:6 100111:1 100117:7 100388:2 #
-0.0012250816803654456660366278697438 18:3 758:3 759:1 1175:1 1629:1 1682:1 2260:2 3359:1 4751:1 5230:2 5865:1 6080:1 8827:1 10481:1 10482:8 11011:1 11306:1 12069:3 12190:1 12790:6 12791:1 13086:1 13407:1 13632:2 13753:29 14632:1 14960:3 15348:6 15584:1 15779:7 16756:1 17396:1 17630:2 17714:4 17835:1 17896:1 17922:1 17938:1 18420:1 18869:2 21342:1 21452:2 21546:1 21638:1 21975:1 22149:1 22153:1 22360:1 23430:1 23703:1 25133:1 25263:1 25962:1 26009:1 26278:1 26283:2 27460:1 27461:1 27462:3 27464:1 27489:1 27932:1 28151:2 28577:1 29283:2 29842:1 30060:2 30094:1 30281:1 30993:1 31737:1 32626:1 33450:1 33830:1 35961:1 36462:11 37411:1 37667:1 37722:1 37949:2 38367:2 38531:1 38567:1 38568:1 38763:2 39034:1 40396:3 40759:1 41029:1 41138:4 41200:1 41324:1 41409:1 41920:3 42328:1 42499:1 42754:9 43903:4 44409:2 44698:1 44931:1 44948:1 44961:1 44972:1 46079:6 46170:1 46587:1 46781:1 47094:1 47309:1 47943:1 48004:1 48582:1 48943:1 49037:1 49759:26 49827:3 50006:1 50258:3 50648:1 51093:1 51257:5 51527:2 51552:10 51554:1 51556:1 51558:2 51907:9 52083:2 52154:5 53215:1 55992:1 56024:1 56790:1 57016:4 57159:1 58006:1 58521:1 58772:1 59240:3 59394:1 59420:1 59796:1 60002:1 60644:1 61644:1 61866:1 61950:1 61997:1 62901:1 63235:1 63242:1 63251:1 64386:1 64573:1 64719:1 64735:1 64981:1 65085:1 65821:4 65903:1 66010:2 66943:7 66989:1 67020:1 67180:10 67435:5 67762:2 67821:1 67889:1 68298:1 68315:2 68507:1 68562:1 68756:1 68811:1 69057:2 69550:1 69553:1 69554:1 69597:4 69710:14 69713:1 70760:1 70765:2 70918:2 70935:1 71678:1 71720:1 71821:1 71866:1 72605:1 73442:2 73573:6 73579:2 73734:1 73938:1 74037:1 74111:1 74122:5 75043:1 75745:1 75762:1 76417:1 76902:2 76912:2 76916:1 77762:1 77864:1 77960:1 78237:1 78441:4 78830:2 78831:1 78914:1 79176:1 79275:4 80059:1 80683:5 80995:1 81219:1 81346:1 82189:1 82193:1 82240:1 82538:2 83104:1 83109:1 83544:1 83562:2 83887:1 83901:1 84970:1 85255:2 85572:1 85659:1 85992:1 86338:2 86459:1 86925:2 87156:1 87166:2 87293:1 87598:1 87630:2 87631:1 88209:1 88233:1 89223:2 89401:2 89491:1 89945:1 90101:1 90234:1 90256:19 90372:3 90410:1 90433:2 90506:4 90880:4 91226:16 91477:2 92236:1 93120:1 93390:1 93702:1 93873:1 93999:1 94523:1 94524:1 95148:2 95714:1 96557:1 97200:1 97424:1 97513:1 97649:2 97665:1 97921:3 97947:1 97958:1 98051:1 98099:1 98245:3 98512:9 98914:1 98991:1 99312:1 100117:2 100388:2 100421:1 #
-0.0012250816803654456660366278697438 10481:1 10747:2 12166:1 12199:1 12886:2 14960:2 15779:1 21160:1 23730:1 25133:2 25962:1 39183:3 41920:1 46380:1 46621:1 46781:2 47831:1 47845:1 48386:2 49721:1 49722:1 49874:1 53051:1 53669:1 57015:1 57907:1 58089:1 58167:1 59166:1 59170:1 63844:1 63855:1 66943:1 67441:1 67447:1 67452:1 67560:1 67805:1 68388:1 70276:1 76462:1 76891:1 77752:1 77872:1 77947:1 78830:4 83757:1 90256:3 90479:1 91226:1 92522:1 96235:1 97326:1 97410:1 97470:1 97602:1 97958:1 99109:1 99950:1 100388:1 #
0.0012250816803654456660366278697438 758:15 759:2 1014:5 1175:2 1335:3 1506:7 1526:2 1682:4 1822:3 1934:10 2023:4 2125:3 2258:1 2259:8 2260:1 2276:1 3005:2 3255:2 3591:3 3703:1 3870:2 3951:3 4028:12 4153:5 4270:4 4358:2 4506:1 4879:1 4992:1 5091:1 5230:9 5231:2 5327:2 5588:1 5960:1 6080:5 7046:2 7953:2 8041:1 8827:4 10481:1 10482:3 10687:1 10747:1 11330:3 11400:1 12112:1 12114:1 12886:8 13064:1 13137:1 13241:3 13256:14 13632:1 13753:22 13910:1 14960:8 15348:3 16512:2 17349:1 17714:3 17808:2 17896:3 17922:1 18004:2 18778:1 19029:1 19863:1 19972:1 20185:2 20780:1 20849:1 21490:2 21638:2 22082:1 22646:1 22650:1 24177:3 24388:1 25263:2 25962:1 26009:1 26035:1 26049:1 26414:1 26599:1 27791:1 27864:3 28151:3 28222:1 28223:1 28582:1 29655:1 30094:2 30115:1 30310:1 30900:1 31057:1 31496:2 31500:2 31656:1 31695:1 32071:1 32884:1 33237:1 33376:1 33477:1 33709:1 34736:1 34740:1 36358:1 37047:3 37665:1 38030:3 38052:3 38062:1 38067:2 38076:2 38181:2 38479:1 38715:2 38908:1 39208:1 39382:10 39387:1 39551:1 40138:1 40259:1 40595:1 41138:16 41371:1 41842:1 41920:4 42328:1 42367:2 42491:1 42860:2 43162:1 43573:2 43744:1 44109:1 44246:2 44693:1 44699:1 45634:1 45763:1 46079:2 46170:5 46317:2 46320:1 46414:4 46455:1 46473:1 47281:1 47634:1 47805:1 48242:1 48716:41 49037:2 49360:1 49380:1 49759:7 51091:1 51907:5 51915:1 52083:2 52447:1 52503:1 52781:6 52824:4 53185:9 54872:1 54891:1 54924:4 55765:1 56132:1 56790:3 57506:2 57600:2 58260:12 58262:1 58564:2 58988:2 59187:1 59924:1 60139:4 60231:1 60604:7 60846:1 61266:1 61566:1 61726:1 62187:1 62223:1 62982:2 63132:1 63235:1 63969:22 64661:1 64849:1 64964:1 65521:1 65880:5 65917:1 66266:1 66943:6 66977:1 67053:1 67435:5 67455:1 68080:1 68562:1 69062:1 69606:1 70419:1 70527:1 70616:1 71031:1 71720:1 71737:1 72016:1 72634:1 72651:1 74457:1 74604:10 75717:1 76901:3 77060:1 77722:1 78242:1 78259:1 78866:1 78875:2 79370:1 79897:3 80683:4 81051:1 82100:1 82253:1 82272:1 82573:1 82601:1 83272:1 83584:1 84032:1 84095:1 84123:1 84174:1 84956:1 85294:2 85445:1 87020:1 87532:1 87760:1 88852:1 89004:1 89509:1 89755:1 90212:2 90234:5 90256:14 90422:1 90477:1 90506:1 90571:2 90578:1 90649:1 90880:1 91226:9 91294:1 91660:1 92185:1 92469:1 93431:1 94406:2 94643:1 95714:1 96956:1 97093:1 97200:1 97337:1 97709:4 97915:4 97921:1 98051:3 98245:7 98440:1 98512:6 98538:1 98750:1 98763:1 98991:1 99132:2 99312:1 100388:50 100421:20 100890:1 #
0.0012250816803654456660366278697438 4028:1 10481:1 10482:2 12886:2 13068:1 15177:1 15355:1 15779:5 17714:2 17896:1 17922:1 19983:1 21489:2 21490:1 21530:1 22145:1 22430:1 22999:2 25270:1 25750:1 25962:1 26261:1 26361:1 28151:1 29310:2 30094:1 32058:1 32124:1 33477:1 34716:1 35961:1 38073:1 38076:1 40300:1 41707:1 41832:1 41920:1 41933:1 43389:5 43744:1 44078:1 44142:1 44356:2 44365:1 46170:2 46755:1 46962:1 47044:1 47634:2 47967:1 48242:1 48295:1 48716:5 49037:1 49759:4 51907:2 52083:1 54583:1 54584:1 54924:2 55659:1 56769:1 57600:3 58260:1 58861:1 58988:1 59154:1 60061:1 60235:1 60604:1 61272:1 62740:1 63969:1 65276:1 66943:1 66999:1 67219:1 67435:2 67949:1 71742:1 72654:1 73734:1 73800:1 80118:1 80128:1 80683:2 81227:2 82240:1 83070:1 83188:2 84956:2 85262:1 85275:1 87926:1 88852:4 90256:3 90315:3 90329:1 90372:1 90433:1 90506:3 90880:1 91226:4 91439:1 91675:1 94319:1 94406:1 94616:1 94964:1 96951:1 97093:1 97094:1 97410:2 97552:1 97876:1 97915:1 98488:1 98512:1 98757:2 98857:1 99312:1 99934:1 100388:1 100421:1 #
-0.00020635425280605534242850396253743 17:3 1014:1 2499:2 6081:1 7047:3 7953:1 10481:1 11670:1 13753:1 15779:1 27847:1 33895:1 38563:1 41138:1 42040:1 44602:1 46170:1 47094:1 50017:1 51678:1 53669:1 57993:1 58061:1 58198:1 58287:1 61598:1 61726:1 62982:1 64645:1 65880:1 66999:1 71116:1 73579:1 73969:2 75588:1 83493:1 85053:1 85081:1 87816:1 97410:1 97876:1 98624:1 99743:2 100388:1 #
0.0012250816803654456660366278697438 10481:1 10831:1 12886:1 13533:1 14300:2 14312:1 14666:1 14960:1 15466:1 17922:1 19892:1 21638:1 22145:1 33405:1 38259:1 41138:1 41409:1 44078:1 44948:1 49037:1 49759:1 51399:1 52083:1 52701:1 53185:1 56138:1 56822:2 56827:1 64661:1 65521:1 70343:1 71866:1 76777:1 90234:1 90256:1 90506:1 91226:3 91477:3 100388:1 100421:1 #
-0.0012250816803654456660366278697438 2861:1 10481:1 11715:1 11718:1 13632:2 13768:1 14275:1 14850:1 16081:1 16153:2 16177:1 17988:1 18262:1 18504:1 18573:1 19041:1 19074:3 20877:1 29851:1 30989:1 31085:1 31310:1 32066:1 32085:3 32088:1 32089:1 34653:1 35484:1 35515:2 36894:1 37305:1 37369:1 37400:1 39853:1 40248:1 40249:1 41009:1 41170:1 43057:1 43907:1 44039:1 45505:3 46160:1 47084:1 49147:2 49148:2 49149:1 49150:1 49152:1 49759:2 50437:1 50453:2 50454:1 50514:2 51716:1 52057:3 54211:1 54212:1 54769:1 56429:1 59142:2 59814:1 60894:1 61488:1 61858:1 62253:3 62303:1 63356:1 63635:1 64849:1 66855:2 68562:1 69592:1 69650:1 72016:1 81656:1 82373:1 82515:1 82519:1 83745:1 83804:10 84077:3 85207:1 85554:1 92541:1 93674:1 94218:2 94240:1 94242:1 94309:1 95587:1 95698:1 96491:1 97200:1 97568:1 97601:1 97624:1 97672:1 97689:1 98470:1 98678:2 98731:1 101268:1 101281:2 101299:1 #
0.0012250816803654456660366278697438 758:1 2259:1 10481:1 10482:2 11604:1 12886:2 14960:4 15779:2 19863:1 19892:1 23950:1 23971:1 27201:1 27556:1 27950:1 34660:1 36383:1 36537:1 44170:1 46170:1 46755:1 47281:1 51005:1 51399:1 53669:1 56822:1 65276:1 66010:1 66943:1 67018:1 67455:1 68811:1 71268:1 72610:2 75942:3 76408:1 76901:1 77523:1 80932:1 83222:1 86757:1 89013:1 90212:1 90234:4 90256:5 90410:1 91226:1 94406:1 94964:3 95611:1 97410:1 98245:1 #
-0.0012250816803654456660366278697438 1683:1 7046:1 10481:1 13144:6 24353:1 31615:1 41920:1 60804:1 65521:1 67803:1 67949:1 68416:1 68562:1 73380:1 78342:1 79615:6 91226:1 98512:1 100421:1 #
0.0012250816803654456660366278697438 17:1 19:2 760:3 798:1 1809:1 1811:1 1813:1 1849:1 2276:1 4028:3 4029:1 4993:1 5328:1 6148:1 6918:1 7490:1 8074:2 8841:1 9190:1 10481:1 10482:5 11245:1 11251:1 12886:1 13753:7 15348:1 16142:1 16228:5 16671:2 19587:1 19892:1 21452:3 21497:1 22149:2 24983:2 25461:2 25750:2 25962:1 26206:2 26271:1 26278:1 26283:7 27918:1 27928:2 27932:3 29722:3 30242:1 30323:1 31728:1 31840:1 32386:1 32392:4 32395:1 34141:1 35508:3 35961:1 36212:4 36700:2 36828:2 38970:1 39442:1 39597:1 41029:1 41034:1 41138:1 41223:2 46170:1 47565:2 48249:1 49759:1 49827:2 52049:5 53794:1 54020:2 55109:1 58442:3 58446:1 59192:2 59205:1 59394:1 59587:1 59650:1 61839:1 62048:1 62090:1 64981:1 65054:1 65521:8 65899:1 66943:2 67006:4 67435:1 67537:1 68811:1 69302:3 69318:1 69332:5 69432:3 71866:1 73217:1 73956:2 75670:2 76902:1 77108:1 77194:1 81230:1 82750:1 82758:1 83118:5 83134:1 84467:1 86333:1 86554:1 86632:1 88120:1 88692:1 89668:1 90234:1 90256:2 90410:1 90874:2 91226:2 94056:3 94073:4 94616:1 95148:5 97410:1 97709:1 98245:1 100159:3 #
0.0012250816803654456660366278697438 10481:1 13687:1 13753:3 14583:1 15348:1 15779:1 17714:1 17896:1 18441:1 18529:4 18765:2 20443:1 21638:1 22145:1 25338:1 25584:1 27973:4 27976:1 31615:1 32124:1 32622:1 37665:1 40259:1 44356:1 46079:1 48271:4 48914:1 49759:1 50146:1 50768:1 51907:2 57832:1 59240:1 59796:1 60123:3 60231:1 61266:1 64645:1 67537:1 68388:1 68416:1 74602:1 77271:1 77276:1 78328:1 79382:1 81238:1 81239:1 82382:1 83889:1 88801:1 89052:1 89183:1 89548:1 90256:14 90329:1 90506:1 90643:1 91226:5 91820:1 95148:1 97326:1 97410:1 99197:1 100388:2 100421:1 100967:1 101016:1 #
0.0012250816803654456660366278697438 19:1 2262:1 2276:1 3705:1 8827:1 10481:1 11447:2 11462:4 12143:1 13696:1 13753:18 15291:1 15650:1 15779:1 16002:1 16354:3 17896:1 20621:1 21638:3 22153:1 22331:1 23140:1 23141:1 23157:5 23364:1 25133:2 25962:4 26278:1 26283:4 27224:1 27225:1 27341:2 27357:1 27713:1 28165:1 29985:1 30136:1 31611:2 31615:1 32391:2 32395:4 32943:1 33611:1 33728:2 34660:2 35111:1 35705:3 35961:2 36212:1 36700:1 38678:1 39442:3 39578:1 39597:1 40227:1 41034:1 41285:2 41310:1 42096:1 42156:1 43134:1 43137:1 43138:1 43243:1 46079:1 46781:2 47564:1 48242:1 48580:1 49037:1 49912:4 49913:2 50115:1 50258:1 50487:5 50908:2 51189:1 51556:1 51907:1 53459:1 54353:2 57424:1 57435:2 57444:1 57964:1 59164:1 61582:1 62982:3 63240:1 63388:1 63405:1 63516:1 63731:1 64192:2 64849:1 65658:4 66010:1 66264:2 66272:2 66943:3 67435:3 67680:1 67691:1 67889:1 67949:2 68315:1 68388:2 68812:2 68815:1 70636:2 71088:3 71748:3 72236:1 72414:1 72837:3 72848:1 72864:1 73628:1 73731:1 73933:1 74451:1 74779:1 74866:1 75703:1 75942:1 77599:1 78219:1 78327:1 78887:1 78925:1 79883:3 80126:2 80506:1 80683:2 80896:1 82573:1 82758:1 86554:1 86586:1 87592:1 88765:1 88811:1 90121:1 90212:2 90256:1 90506:3 91226:4 93059:1 93120:2 94024:1 94278:1 94422:1 94616:1 94624:1 94785:3 94791:7 95991:1 96235:1 97513:2 97921:1 99312:1 100107:1 100421:2 #
-0.0012250816803654456660366278697438 8397:1 10481:1 10482:1 12110:1 13753:1 17714:1 21721:1 24573:1 30094:1 46170:1 46621:1 51907:1 55750:1 56748:1 57159:1 57600:1 60801:1 63912:1 65193:1 67435:1 68388:1 68562:1 68923:1 70878:1 71865:1 73579:1 75943:1 76614:1 80683:1 81312:1 85773:1 87038:1 88241:1 91226:1 93120:1 94616:1 94965:1 96235:1 97028:1 98106:1 98245:1 98512:2 98991:1 99433:1 100388:2 100421:1 #
-0.0012250816803654456660366278697438 1683:1 10481:1 10482:1 12020:1 12886:1 15779:1 22525:1 24353:1 25130:1 26175:1 26279:1 28228:1 30998:1 33960:1 36383:1 39847:1 40138:1 41138:1 41859:1 41920:1 44142:1 46317:1 46781:2 47027:1 47980:2 48055:1 49453:1 56407:1 60804:2 61098:1 62119:1 63165:1 65024:1 67949:1 73599:2 73613:1 73716:1 73979:1 74161:2 76160:1 82432:1 83331:1 83332:1 83762:2 84610:1 85278:1 88138:1 89315:1 89477:1 90704:1 91226:3 98099:1 98338:1 100388:1 #
-0.0012250816803654456660366278697438 805:1 1191:1 1441:1 1682:1 1822:1 9299:1 9409:1 10481:1 13687:1 13753:4 14960:1 15590:1 16384:1 17418:1 18825:1 19007:1 21546:1 24983:1 25133:3 26414:1 26488:1 27341:1 27489:1 27491:1 28263:2 28610:1 29281:1 29985:1 30094:1 30271:1 30855:1 32124:2 32554:1 34716:1 35266:1 35716:3 35961:1 36116:2 36462:1 36473:2 38208:1 38276:1 38401:1 38567:1 38594:1 39047:1 40227:1 42197:1 42328:1 46781:3 47094:1 48448:1 48951:1 49759:2 49913:1 50487:1 50961:1 50980:1 51584:1 56386:2 57081:1 57213:1 58006:1 58287:1 59005:1 59394:3 59771:2 59796:1 60784:1 61126:1 62982:2 63155:1 64981:2 65926:1 66010:1 66422:1 66424:1 66438:3 66943:4 67435:1 67510:1 67684:1 67761:2 67846:2 68001:2 68315:1 68756:1 69548:2 71187:1 71866:1 72548:1 72603:1 72837:5 73000:1 74459:1 76679:2 77544:1 78327:2 79382:4 79853:1 82240:1 82424:1 82628:1 82758:1 83517:1 84044:1 84240:1 87339:1 88684:2 89945:2 89965:1 89972:2 90506:1 91226:5 91457:1 91809:2 91833:6 91881:2 91939:1 92049:1 92978:1 93062:2 94278:2 94616:1 94696:1 95264:1 96235:1 96521:1 98245:1 98512:1 99312:1 100371:2 #
0.0012250816803654456660366278697438 10481:1 14960:1 30329:1 43389:1 46338:1 52551:1 53552:1 62757:1 68562:1 76614:1 84102:1 84956:1 90256:1 91226:1 97915:1 100388:1 #
0.0012250816803654456660366278697438 759:1 4924:1 5816:1 6171:1 10481:1 11055:1 20577:1 21957:1 23722:1 24399:1 32369:1 37787:1 45911:1 46079:1 46317:4 47557:1 48123:1 48716:2 51907:2 60262:1 60604:2 65940:1 66010:1 66943:1 66963:1 77248:1 78217:2 78219:1 85927:1 90234:1 90256:1 91226:3 94069:1 97093:1 97200:1 97336:2 98245:1 98512:2 100388:1 #
-0.0012250816803654456660366278697438 1526:1 5230:1 10481:1 10482:3 10754:1 11419:1 11462:1 12886:1 13753:4 14318:1 16671:1 16728:1 16972:1 17901:1 18127:1 19968:1 20053:1 21490:2 21721:1 23950:1 24188:1 28151:1 29629:1 29706:1 34653:1 34797:1 35491:2 38707:1 38970:1 40481:2 41138:1 41467:3 41852:1 42432:1 43389:3 43744:1 44078:1 44305:1 45493:1 45494:2 46170:1 46621:1 46755:1 47318:1 48105:1 48242:1 48716:6 50437:1 50841:1 50905:1 52083:2 53669:1 54189:1 55567:1 56018:1 58052:1 58260:1 59597:1 60604:1 60630:1 63969:1 64080:1 64849:1 65342:2 65350:1 65880:1 65970:1 66474:1 66943:1 66963:1 67435:4 67455:1 68416:1 68923:2 69432:1 69877:1 74066:1 74083:1 75942:2 79275:1 80683:20 82842:1 83592:1 84220:3 84227:1 84459:1 85478:1 88852:2 90214:1 90256:4 90315:1 90372:1 90501:1 90606:3 91226:6 92877:1 92937:3 92978:1 93120:1 94406:1 94964:2 96234:1 96860:1 97015:1 97326:1 97410:1 98757:1 98991:1 99405:1 99933:1 100103:1 100172:1 100388:1 100452:1 100676:1 #
0.0012250816803654456660366278697438 19:1 825:1 2125:2 3359:1 3789:1 3889:1 3936:1 6080:2 7778:1 8616:1 8981:1 9001:1 10423:2 10481:1 10482:4 10747:1 10966:1 11045:7 11462:4 12112:2 13309:12 13533:1 13753:2 14300:5 14522:1 15348:1 15779:1 16354:2 17714:2 18127:1 18778:1 18864:1 20168:1 21490:2 22145:4 22169:2 23493:1 23495:3 23722:2 23728:1 23799:1 25133:2 25962:13 25986:1 27885:2 29352:1 29890:1 30929:1 30934:1 31192:1 31615:1 31818:1 32053:2 33237:1 33405:1 33477:1 34653:2 34660:1 34736:1 35111:2 36700:1 36759:1 38656:1 38795:1 39299:1 39639:1 41034:1 41036:1 41138:4 41920:2 43573:6 46170:2 46637:2 48002:1 48242:6 49037:2 49759:6 50487:2 52083:2 52117:2 53669:2 54924:2 55992:1 56024:1 57310:2 57316:1 57600:1 59142:3 59255:1 60619:1 61271:1 61726:1 62048:1 62603:1 62982:2 63516:1 66943:2 67435:4 67510:2 67846:1 67889:5 67949:5 67952:1 67957:2 67962:3 68388:3 69028:3 69900:1 70254:1 70419:1 71187:1 71866:2 74961:2 75717:1 75752:1 76662:1 79275:2 80683:2 80995:1 82240:1 82388:1 82513:1 82601:1 82750:2 82855:1 83396:3 83506:2 84178:2 84956:1 86036:1 86566:1 86606:1 86851:1 87656:1 88852:2 89721:1 90221:3 90234:2 90256:8 90315:1 91226:7 91477:2 91783:1 93005:1 94014:1 94249:2 94591:1 94616:1 94728:1 95399:1 95814:1 95991:1 96235:4 97410:3 97470:2 98512:2 98757:1 98956:1 99312:6 100388:9 100421:12 #
0.00048470131443622530053108587999589 758:1 759:1 1014:1 1175:1 1682:8 1822:1 2259:3 2260:1 3469:2 6080:1 7046:1 7953:2 8827:2 9486:3 10481:1 10482:2 12568:1 14960:1 16090:1 16983:1 21172:1 22708:1 22732:1 23696:1 25962:1 27784:1 35530:1 39493:9 41138:1 42600:2 42605:1 45362:1 46781:2 47027:1 48204:1 48242:1 48716:1 49513:1 49759:1 49913:1 50111:1 50221:3 51907:1 53253:1 53563:4 53603:3 54924:1 57159:1 57310:1 58089:1 61726:1 62740:3 66943:1 67889:1 70034:1 72016:8 72555:2 77863:1 79647:1 80131:1 80683:1 81555:2 84993:1 86453:1 86817:1 89355:9 90256:4 90574:1 90669:3 90684:1 91226:2 91424:1 96705:8 97093:1 97528:2 100388:2 100421:1 #
0.0012250816803654456660366278697438 10481:1 10482:1 13753:2 13825:1 14367:2 14960:1 15916:1 17922:1 18848:1 21490:1 22604:1 24899:1 33838:2 42367:1 43389:1 44142:1 48716:1 50768:1 51907:1 52083:2 54924:1 56769:1 56790:2 58235:1 60604:1 67219:1 68416:1 82513:1 86293:1 90578:1 91226:4 97094:1 97410:1 98512:1 100421:2 #
0.0012250816803654456660366278697438 7046:1 10481:1 10482:1 13961:1 17714:1 30094:1 41842:1 46781:1 48716:1 49037:1 52083:1 57159:1 65085:1 66814:1 66943:1 67219:1 83415:1 89004:1 90188:1 90221:1 91226:1 94977:2 96091:1 98245:1 98991:1 #
0.0012250816803654456660366278697438 10481:1 32124:1 80995:1 85838:1 87065:1 #
0.0012250816803654456660366278697438 155:1 228:1 276:1 758:2 1719:1 5374:1 6080:1 7980:1 10128:1 10423:1 10481:1 17896:1 19616:1 25091:1 27481:1 29629:1 40801:1 41138:1 41920:1 42754:1 45048:1 46079:1 48094:2 61343:1 62422:1 63237:1 66943:1 66963:1 67435:1 68923:1 75001:1 77104:1 87138:1 90117:1 90256:2 91226:1 99116:1 #
-0.0012250816803654456660366278697438 4029:1 10481:1 10482:1 17896:1 40259:1 41138:2 41447:1 46170:1 46781:3 51907:1 57081:1 57159:1 58061:1 58260:1 58516:1 59597:1 66943:1 67455:1 68562:1 71678:1 80683:1 82750:1 84102:2 90256:3 90299:1 91226:1 95365:1 95399:1 100388:1 100452:1 #
0.0012250816803654456660366278697438 3469:2 10481:1 46781:1 49123:1 52503:2 52701:1 54257:1 61582:1 80683:1 88363:1 90188:2 90256:1 94419:2 99670:1 #
-0.00080648022344094992281543499146323 9232:1 10481:1 10482:4 10687:2 10747:2 10754:1 12009:1 13256:1 13725:1 13753:7 14645:1 15348:2 15466:1 15779:1 16512:1 17714:2 17867:1 18004:1 22254:1 23950:1 24812:1 26829:1 28099:1 30094:1 30115:1 30606:1 32554:1 34416:1 34466:1 36571:1 36574:1 37268:1 38567:1 39143:1 39847:2 41256:1 41326:1 41707:1 42146:1 45178:1 45557:1 46170:2 46381:1 46639:1 46642:1 46755:2 47193:4 48411:1 48716:7 49453:2 49759:1 50008:1 51001:1 51160:1 51268:1 52083:1 54276:1 54604:1 54934:1 55735:1 57159:1 57310:1 57600:1 58056:1 59305:1 60604:1 61954:1 62982:2 63674:1 65521:2 65880:1 65921:1 66010:1 66943:1 67005:1 67435:1 67537:1 67889:1 68043:1 68046:1 68416:1 69591:3 70260:1 71866:1 71876:1 72232:1 73380:1 76402:1 76728:1 77481:1 78693:1 79242:1 79672:1 80683:1 80836:1 80949:1 81348:1 82903:1 82907:1 83562:1 84065:1 84237:1 84956:1 86341:1 86757:1 87012:1 88243:1 88277:1 88324:1 89755:1 90234:1 90256:7 90299:1 90329:1 90433:1 91226:4 93854:1 94406:1 95714:1 97200:2 97649:1 97915:1 97921:1 98245:2 98512:2 98531:1 98752:1 98991:1 100388:2 100411:1 100421:5 #
-0.0012250816803654456660366278697438 17:1 18:1 210:1 641:1 758:3 1014:1 1335:2 1354:1 1927:1 2858:1 3404:1 4028:1 4257:1 4566:1 5372:1 6320:1 6794:1 7047:1 7476:1 7662:1 8226:1 8397:1 9486:1 9834:1 10481:1 10482:1 13753:1 14599:1 15779:1 17714:1 18588:1 19440:1 21721:1 23206:1 25461:1 25962:2 26873:1 27415:1 27890:1 29629:1 30094:1 32591:1 35391:1 35961:1 39631:1 40860:1 41138:2 41669:1 41721:1 42146:1 43463:1 47952:1 48242:1 49759:1 50487:1 50980:1 51907:3 52463:1 58260:1 58391:1 58860:1 61266:1 62516:1 64080:1 65116:1 65880:1 65908:1 66474:3 66943:1 67586:2 68923:1 69062:1 69067:1 69108:1 71088:1 71390:1 71407:1 71866:2 73940:1 76614:1 78198:2 78207:1 80995:1 82158:1 83120:1 83164:1 83441:1 83562:1 83722:1 88217:1 89392:1 90256:1 90506:3 90880:1 91226:1 92275:1 92693:1 92697:1 94964:1 97126:1 #
0.00093483550900869756723754466776199 10481:1 10482:2 10747:1 11250:1 12266:2 12886:2 13447:1 14318:1 15348:1 15779:2 21490:1 23514:3 29890:1 31775:2 33237:1 33336:2 40396:1 41138:1 42754:1 45246:1 46170:1 48716:1 50487:2 51907:1 51983:1 52083:2 54924:1 58056:1 59933:1 60630:1 61097:1 65880:2 67455:1 71714:1 71748:1 73862:2 77753:1 88852:1 90234:3 90256:5 90372:1 90506:1 91226:1 97915:1 100388:1 #
-0.0012250816803654456660366278697438 10481:1 10482:1 10747:1 12886:1 13753:1 14112:1 16512:1 23703:1 27357:1 27955:1 28151:1 41138:1 43825:1 44246:1 45205:1 50487:1 55973:1 66010:1 66943:1 75728:1 80683:1 90256:1 90372:1 90649:1 90656:1 91226:1 92672:1 96228:1 97410:1 98245:1 100388:3 100421:2 #
0.0010233072952920896012130036467624 2261:1 2276:2 10481:1 14029:1 17714:1 21942:1 26968:1 27419:2 32771:1 35162:1 36880:1 37776:3 41034:1 49759:1 66943:1 68562:1 71117:2 71141:1 74763:1 80683:3 87564:1 90256:5 91226:1 97709:1 98245:1 98400:2 98405:1 #
0.0012250816803654456660366278697438 10481:1 10482:2 10687:1 11447:1 13753:1 14300:1 15290:1 17714:1 18441:1 23728:1 27784:1 31474:1 33838:1 36746:2 38521:1 41138:1 41410:1 44246:1 44693:1 46170:2 46781:1 48716:1 51907:1 52083:1 54033:1 56024:1 56194:1 59255:1 60604:1 63027:1 65039:1 65085:2 66943:1 77500:1 82513:1 85275:1 89052:1 89491:1 90256:3 90315:1 90329:1 91226:4 97410:1 97552:2 97555:1 98245:1 100388:1 100421:1 #
0.0012250816803654456660366278697438 10481:1 10482:1 13137:1 13753:1 15348:1 15678:1 17714:1 17896:2 18848:1 20276:1 25479:1 28205:1 28610:1 32626:1 41029:2 41295:1 43267:1 46079:2 46170:1 46317:1 48067:1 48716:2 49759:3 50122:2 51907:1 60376:1 60604:1 61266:1 63969:1 64573:1 65521:1 65917:1 66999:1 67435:1 71678:1 77497:1 77500:1 83478:1 84616:1 89025:2 89055:2 89945:1 90234:2 90256:2 90477:1 91226:3 91939:1 94406:2 98051:2 98245:1 98512:1 100167:1 #
-0.0012250816803654456660366278697438 758:3 1884:1 3577:1 5693:2 9059:1 9341:2 9488:1 10439:1 10481:1 10482:1 10747:2 13256:4 13753:2 14300:1 15779:1 18864:1 21490:1 21992:2 22145:1 25962:2 26009:1 29192:1 33920:2 34653:1 39261:1 41138:4 41707:2 46621:1 47866:1 47943:1 48242:1 48448:1 48716:5 49377:1 49759:1 51907:2 52083:1 56769:1 57081:1 57176:1 58069:1 58260:1 59142:3 59255:1 60137:1 60604:3 61931:1 63113:1 63969:2 65880:1 66943:1 67455:1 67649:1 68811:1 70608:1 70623:1 71088:1 71813:1 76665:1 82887:1 82910:1 83860:1 83902:1 86186:1 87532:1 89052:1 89603:1 90234:1 90256:1 91226:1 91343:1 91694:1 92522:1 93431:1 93490:1 94406:2 95714:1 96491:1 97326:1 97790:1 98512:1 99312:1 100388:3 100421:5 #
-0.0012250816803654456660366278697438 758:1 5363:1 10481:1 10482:1 10947:1 13256:1 13632:1 13753:2 14667:1 16503:1 17896:2 18127:2 19104:1 20781:1 21436:4 21452:1 25133:1 27294:1 27341:1 30329:4 31505:1 33237:1 33477:1 35015:1 35773:1 38318:1 40299:1 40473:1 41029:1 41138:3 41920:1 43267:4 46170:2 46317:4 48716:2 48901:1 49037:1 49759:4 50467:1 50782:1 51786:4 51907:9 53185:4 54324:4 57213:1 57310:1 58287:1 62048:1 62190:1 65880:1 65899:1 66943:1 66977:1 67435:2 67537:1 68388:2 68416:1 69028:1 71866:1 73093:1 76392:1 80748:1 82199:1 82384:1 82538:1 84032:1 84178:1 87726:4 88852:1 89020:1 90214:1 90234:2 90256:2 90506:3 90880:1 91226:4 91574:1 94406:1 95085:1 97093:1 97108:4 98399:4 98488:1 100159:3 100388:6 100421:1 #
-0.0012250816803654456660366278697438 17:1 798:1 1176:1 1392:1 2259:2 3122:1 4173:1 8855:1 10481:1 10482:2 16384:1 17688:1 19241:1 24885:1 25133:1 25910:1 25962:1 31043:1 34653:1 41920:1 44463:1 45557:1 46781:1 49200:1 54872:1 57418:1 57612:1 59164:1 61266:1 62781:1 64849:1 64964:1 67840:1 67889:1 69148:1 75942:1 82513:1 86272:1 87816:1 88022:1 90188:1 90506:1 91226:2 94278:1 96860:1 97775:1 100388:2 #
-0.0012250816803654456660366278697438 9097:1 10481:1 10747:1 12062:1 12082:1 12112:1 12886:1 14300:1 14960:1 15779:1 17390:1 19655:2 21638:1 23722:1 27550:1 28263:1 31474:1 33951:1 38289:1 39347:1 39382:1 41920:1 41933:1 43119:1 44078:1 49909:1 50017:1 53135:1 54604:1 55807:1 56012:1 56182:1 56769:1 58287:2 58294:1 59191:1 61929:1 65921:1 67455:1 67674:1 70343:1 72583:1 73579:1 75031:1 76644:1 77174:1 78684:1 80088:1 81365:1 81658:1 82158:2 82240:1 84065:2 84087:1 84920:1 84956:1 85081:1 87012:1 87038:1 87065:1 87688:1 88197:1 88801:1 90577:1 90784:1 91477:1 94643:1 95714:1 96632:1 97244:1 97876:1 98099:1 98392:1 98857:1 100388:1 100408:1 #
0.0012250816803654456660366278697438 210:2 758:3 2259:1 2260:1 3005:1 3128:1 3255:1 3469:2 3703:2 4029:2 10481:1 10747:1 12455:1 13126:1 13753:12 14300:1 14517:1 14569:1 14583:1 14589:2 14960:2 15645:1 15779:6 16278:1 17714:5 17752:1 18127:4 18201:1 19933:1 20149:1 20162:1 20665:1 21638:1 22145:1 22254:2 22479:1 22747:1 22848:1 23698:1 23700:1 23966:2 25133:4 25584:5 25962:4 26728:1 27012:1 27754:1 28248:5 30094:1 32554:4 33237:1 33336:1 33477:1 34416:1 34653:1 35561:2 35954:4 35974:1 38044:1 38316:1 38567:1 38970:1 39219:4 39892:3 40037:1 40538:1 41101:3 41118:1 41138:1 41159:1 41707:1 41859:4 42328:1 43573:1 44246:1 46099:1 46401:1 48448:1 49037:3 49759:3 51399:1 51907:2 52117:1 52463:2 53039:1 53207:1 53280:1 53669:1 54504:1 54505:1 55679:1 55683:1 56502:1 57029:1 57316:1 57844:3 58305:1 59142:2 59597:1 63846:3 65107:3 65305:2 65880:4 66943:2 66963:3 66977:2 67435:2 67455:1 67537:1 67889:6 68315:2 68388:9 68416:1 69053:1 69669:1 71866:1 73423:1 73573:1 73676:1 73693:1 73956:2 74100:1 74181:1 74184:1 74451:1 74961:2 74965:2 76665:1 76901:2 77193:1 77194:1 77271:1 77535:1 77592:1 78835:1 80889:1 81272:1 81312:1 81325:4 82794:1 83104:1 83493:1 83613:1 84032:1 84185:2 85651:1 85671:1 85970:1 87038:1 87047:3 88005:5 88852:1 89004:1 89013:1 89118:1 89335:1 89491:1 89972:1 90256:13 90506:2 90606:1 90643:3 90702:1 90756:6 90873:1 90880:1 91226:13 91264:2 93059:1 94278:1 94643:2 94649:1 95085:2 96499:1 97093:1 97470:2 97636:1 97921:1 98245:1 98488:1 98512:2 99600:1 100388:4 100421:2 #
0.0012250816803654456660366278697438 17:12 758:1 1822:1 2262:1 3359:1 3951:1 4992:1 6514:2 7047:1 10481:1 12606:2 12998:2 14576:1 14961:1 15921:1 18441:2 18897:1 19391:2 21064:2 21126:1 21363:1 22643:2 23950:2 26789:1 27409:3 27437:4 27550:2 28174:1 30006:1 30673:1 32798:1 33257:1 33296:1 35153:1 36332:1 38181:1 38759:2 39538:1 40037:1 40117:1 40121:1 41302:2 41920:1 43903:1 49631:1 53603:1 58235:1 60197:1 60215:1 61905:1 63327:1 63454:5 63457:1 64192:1 65521:10 65685:1 65790:1 66264:1 68026:1 72603:1 72608:1 76644:1 77102:2 78830:1 79594:1 82654:1 84237:5 85468:1 85561:1 87188:1 87532:1 88063:1 88801:1 90669:1 91978:1 92578:2 93059:3 93120:1 94419:1 94621:1 94622:1 95332:1 95677:2 96440:3 96557:1 99014:1 99116:2 100159:1 #
-0.0012250816803654456660366278697438 2259:1 7047:1 9486:1 10481:1 10595:1 12861:1 13753:1 18441:1 19016:1 19655:1 22224:1 23754:1 23929:1 24118:1 24566:2 27672:1 29662:2 34090:1 35274:1 38216:1 43150:1 46381:1 49759:1 52440:1 55666:1 55680:1 55951:1 57159:1 58011:1 59567:1 61026:1 63082:1 66010:1 66814:1 66943:1 67435:1 67903:1 67949:1 72296:1 72837:1 74244:1 75894:1 76402:1 76614:1 79734:1 80149:2 80537:1 81312:1 82903:1 84943:1 85053:1 85550:1 86281:1 86619:1 87942:1 88005:1 88941:1 90212:1 90256:1 90433:1 90828:1 90903:1 91226:1 91264:1 94406:1 95639:1 96387:1 96535:1 97083:1 100421:1 #
0.0012250816803654456660366278697438 10481:1 10482:2 12436:1 13256:1 13632:1 13753:1 15348:1 15625:1 15920:1 16354:1 16512:1 17714:1 18061:1 20277:1 20665:1 20849:1 22145:1 32369:1 35844:1 41138:2 43555:1 44941:1 46637:1 46755:2 48716:2 49759:3 51247:2 51356:1 51907:1 52447:1 53669:1 55679:1 57159:1 59269:1 60604:1 66977:1 71866:1 78217:1 78403:1 78698:1 79275:1 80995:1 83188:2 85262:1 86887:1 87899:2 90221:1 90234:1 90256:2 91226:5 94616:1 97326:1 97410:3 98245:1 98991:1 100388:1 100408:1 100421:1 #
-0.0012250816803654456660366278697438 1683:1 10481:1 11278:1 11422:1 11775:1 13087:1 13123:1 13225:1 13350:1 14518:1 15103:1 17788:2 18516:2 19587:1 19863:1 21546:1 21725:1 23703:1 24353:2 25130:1 26065:1 26279:1 26747:1 27161:1 27885:1 28228:1 29915:1 31430:2 31496:2 32638:1 35266:1 38188:1 38617:1 39087:1 40881:1 41138:1 41223:1 41920:1 42146:1 42688:1 43412:1 43753:1 44356:1 44366:1 44664:1 45557:1 45841:1 45900:1 45936:1 46116:1 46781:1 47980:1 48055:1 48716:1 50093:1 56334:2 56796:1 56856:1 57634:1 58123:1 58511:1 60804:1 60805:1 60848:1 61202:1 61291:1 61805:1 62781:1 63132:1 64750:1 65917:1 66264:1 66981:1 67949:1 73599:1 73716:1 73850:1 74161:1 74214:1 75792:2 76159:1 77861:1 79229:2 81252:1 82432:1 82732:1 83332:1 83517:1 83860:1 84174:1 84997:1 87030:1 87926:1 90329:1 91226:3 91900:1 92579:2 92806:1 92818:1 94649:1 95714:1 97094:1 98073:1 98338:1 98761:1 99129:1 99424:1 100388:1 #
0.0012250816803654456660366278697438 17:1 759:1 760:1 1308:1 2874:1 3005:1 4028:2 4270:1 5230:2 6080:2 7048:1 7442:1 7593:2 10481:1 10482:1 13012:1 15236:1 15603:1 16274:1 17714:1 17896:1 18127:1 21638:1 26857:1 28655:1 30115:1 31511:2 35019:1 36274:2 37202:2 41138:2 42887:1 46079:2 49759:2 50908:1 51907:1 52314:1 53890:1 60279:2 62397:1 62811:1 65933:1 65937:1 66147:1 67952:1 68923:1 71866:1 72082:1 75942:1 78327:1 78328:2 82240:1 83415:1 86925:1 88801:1 89541:1 90256:1 91226:1 96091:1 96374:1 97915:1 98245:1 99405:1 100388:2 100421:1 #
-0.0012250816803654456660366278697438 1198:1 4127:1 4264:1 6514:1 10481:1 10482:3 11283:1 11752:1 12112:1 12732:1 13776:1 15174:1 15297:1 15450:1 15594:1 15655:1 15964:1 16728:1 17199:1 17298:1 18127:2 18848:1 18879:1 19348:1 19428:1 20807:1 20892:2 21052:1 21638:1 21752:1 21754:2 21951:1 22968:1 23738:1 25962:2 29846:1 30094:1 33477:1 34589:1 38052:1 39548:1 40603:1 41138:7 41467:1 43389:2 44246:1 44361:1 45166:1 47168:1 48716:1 49759:5 51907:2 52083:1 52158:1 53595:1 56018:1 57600:1 61546:1 62190:1 63246:1 64404:1 64645:1 64964:1 65085:1 65880:1 67435:2 67441:1 67451:1 67889:2 68001:1 68196:1 68388:2 69028:2 69877:2 72965:1 74446:1 80546:1 81324:1 83456:1 84000:1 84956:1 85970:1 86431:1 86521:1 88852:2 90234:1 90256:3 90329:1 90571:1 90606:1 91226:2 94964:1 95117:1 95813:1 97093:1 97200:2 97562:1 98051:1 100388:2 100421:3 100452:1 100675:1 #
-0.0012250816803654456660366278697438 10481:1 10482:2 10492:1 10747:1 12886:1 13753:1 14716:1 14960:2 16638:1 17714:1 18382:1 20182:1 22145:1 22480:1 23397:1 23871:1 25787:1 25962:2 27240:1 29585:1 30006:1 30012:2 30026:1 31043:1 31580:1 33531:1 33683:1 33709:1 35665:1 41920:1 44078:2 44463:1 45911:1 46317:3 47027:1 47193:2 47774:1 47805:1 48209:2 48242:2 48716:3 49037:2 49200:1 51907:1 52154:2 52354:1 53669:2 54924:1 55776:1 56786:1 57062:1 57159:1 58210:1 60235:1 60604:3 60846:1 62982:1 63555:1 64415:1 64981:1 65521:1 66943:1 67103:1 67435:2 67510:1 68315:1 68416:2 69148:2 70667:1 71281:1 73040:1 74017:1 75942:1 80082:1 80836:2 81177:1 82079:1 82240:2 82596:1 84178:1 85255:1 88574:1 88764:1 90256:3 90433:2 90479:1 91226:2 94406:1 94455:1 95714:1 97410:1 97552:1 97915:1 98245:2 98512:2 98747:1 99933:1 100388:6 #
-0.0012250816803654456660366278697438 1014:1 1829:1 10481:1 10482:1 11195:1 11823:1 11949:1 12202:1 13632:1 14300:1 14318:1 14616:1 14735:1 14871:1 15069:1 15120:1 15701:1 15905:1 16498:1 16748:1 16945:1 17103:1 17302:1 17472:1 17714:1 18214:1 18298:1 18553:1 19017:1 19177:1 20004:1 20186:1 20199:1 21139:1 22423:1 22951:1 23387:1 23680:1 23950:1 24185:1 25962:1 26330:1 26474:1 26735:1 27579:1 28145:1 28724:1 28953:1 29663:1 30108:1 30617:1 30686:1 30692:1 31203:1 31618:1 33477:2 34402:1 34427:1 35961:1 36274:1 41508:1 41621:1 42612:1 43870:1 44065:1 46042:1 46068:1 46317:1 46442:1 46486:1 46614:1 46962:1 47196:1 48242:1 48901:1 49037:1 49286:1 49698:1 49759:1 51024:1 51185:1 52083:2 53542:1 53669:1 54520:1 54592:1 54655:1 55863:1 56130:1 56507:1 57159:1 58052:1 58223:1 60414:1 60604:3 60961:1 61049:1 61726:1 64645:1 64981:1 65685:1 67278:1 67456:1 67889:1 68388:1 68410:1 68416:1 68923:1 69108:1 69834:1 70487:1 70523:1 72551:1 73091:1 73132:1 76201:1 80683:2 81290:1 81644:1 82240:1 82513:1 83318:1 84000:1 84776:1 85394:1 85401:1 85516:1 86043:1 86078:1 86878:1 86881:1 88852:2 89004:1 89812:1 90234:2 91226:4 91333:2 91671:1 92559:1 92664:1 93624:1 94981:1 94986:1 95449:1 96065:1 97094:1 98062:1 98956:1 98968:1 99312:1 100388:4 #
-0.0012250816803654456660366278697438 10481:1 11462:2 13753:1 14960:1 17714:1 18127:1 19863:1 23159:1 25133:3 25962:1 26283:1 31474:1 35961:1 37365:2 38340:1 41138:1 41920:1 46170:1 46781:1 47027:1 48242:1 48716:1 49037:3 49759:2 51185:1 51464:1 51907:1 57159:1 57258:1 57310:2 60231:1 63969:5 64192:1 65880:2 70517:1 71866:3 72548:2 77959:1 77960:1 79275:1 82240:1 85255:1 87532:1 90221:1 90256:3 90506:1 91226:2 93059:1 97470:1 98857:1 98991:1 99312:1 100388:2 100421:1 #
-0.0012250816803654456660366278697438 10481:1 13256:2 13753:1 40538:1 41138:1 41859:1 41920:1 47027:2 47670:1 48716:2 51907:1 52472:1 55992:1 58061:1 61551:1 63969:3 64192:1 64981:1 71141:1 82240:2 97477:1 97494:1 98512:1 100388:1 #
-0.0012250816803654456660366278697438 758:1 2259:1 6080:1 10481:1 10628:1 11210:1 11889:1 11962:1 12091:1 12606:1 13135:1 13879:1 13899:1 14205:1 14457:1 14823:1 14944:1 14958:1 15260:1 15285:1 15510:1 15779:1 15838:1 16057:1 16077:1 16278:1 16818:1 16823:1 17293:1 17427:1 17714:1 18174:1 18282:1 19619:1 20654:1 21059:1 21134:1 21186:1 21210:1 21348:1 22548:1 22586:1 23314:1 23951:1 24053:1 25110:1 25512:1 25758:1 26652:1 27361:1 27498:1 27905:1 27928:1 27936:1 28162:1 28195:1 28334:1 28940:1 29650:1 29718:1 30115:1 30848:1 30862:1 30896:1 31106:1 32246:1 32870:1 33439:1 33625:1 35483:1 35924:1 36125:1 37391:1 37485:1 37979:1 39163:1 39798:1 40139:1 40282:1 40366:1 41327:1 43220:1 44555:1 45140:1 46146:1 46170:1 46679:1 46870:1 47688:1 49759:1 51402:1 51420:1 51935:1 51991:1 52083:1 52340:1 52581:1 54189:1 54969:1 54977:1 56025:1 59071:1 59265:1 59874:1 60492:1 61011:1 61266:3 61406:1 62196:1 64383:1 64981:2 66203:1 67033:1 67638:1 69396:1 71344:1 71351:1 71687:1 71866:1 72478:1 75011:1 78687:1 78749:1 79160:1 80786:1 82069:1 82186:1 85478:1 85697:1 88676:1 88762:1 88901:1 90315:1 90394:1 91408:1 91473:1 91592:1 94419:1 95116:1 95971:1 95991:1 96124:1 97268:1 97587:1 98245:1 100388:1 100421:1 #
0.0011095504541776199380898049184907 19:7 758:1 2125:1 3128:1 3470:2 4028:1 4992:1 5231:1 6082:1 8398:2 10481:1 11447:1 11878:1 14300:1 14960:1 15779:1 21992:1 28202:1 34260:1 46170:1 49037:1 50487:1 54586:1 54924:1 56769:1 58235:1 59694:4 63006:1 64645:1 67537:1 68080:1 68613:2 71866:1 86745:1 90372:1 90506:1 90880:1 91264:1 91607:1 92978:1 94616:1 98051:1 100388:1 #
0.0012250816803654456660366278697438 758:1 760:1 10481:1 11983:1 12181:4 12266:2 13753:5 14300:4 14318:1 14960:1 16354:1 17714:1 20431:2 21452:1 21490:1 21975:1 24757:1 26873:3 27130:2 27481:2 27514:1 28099:1 29768:6 32392:1 36212:1 36832:1 37106:3 38225:1 38318:1 38381:1 39639:1 41138:1 43142:1 44274:1 46795:1 48393:1 49759:2 49881:2 49912:1 49913:3 50006:1 50083:1 50173:1 51907:3 56790:3 56947:3 57207:2 57210:1 57213:1 57373:1 58174:3 60010:2 60219:1 64703:1 64750:1 64981:1 65521:1 65767:1 65880:1 65968:1 66611:2 66943:10 67006:1 67455:1 67680:1 67761:1 67889:6 68315:1 69053:1 69580:1 69606:1 70385:1 74037:1 74451:1 74930:1 77122:1 77129:1 77891:2 78692:1 83044:2 83110:1 85651:1 89961:1 90256:10 90299:1 90354:1 90506:4 91226:5 91559:1 91592:1 93686:5 96964:1 97175:1 #
-0.0012250816803654456660366278697438 8143:1 10481:1 10687:1 11419:1 12886:1 13137:1 15386:1 15779:1 20845:1 21161:1 22999:1 26252:1 27209:1 27363:1 31655:1 34048:1 35363:1 38207:1 38289:1 39034:1 39382:2 40481:1 41138:2 41447:1 42754:1 44403:1 45625:1 45899:1 46320:1 50813:1 51182:1 56417:1 56748:1 57159:1 57426:1 60604:1 61929:1 64981:1 65276:1 65921:2 66765:1 66963:1 67276:1 67889:1 68416:1 71678:2 72171:1 75787:1 76679:1 79860:1 82855:1 85081:1 85112:1 85233:1 85450:1 85626:1 86521:1 87293:1 87926:1 90046:1 90212:2 90506:1 91447:1 94406:1 96066:1 97649:1 97896:1 98211:1 98488:1 #
-0.0012250816803654456660366278697438 7674:1 10481:1 12886:1 14108:1 14960:1 14961:1 18529:1 20175:1 21490:2 25061:1 25263:1 25284:1 27209:1 27784:1 28229:1 29281:1 30443:1 33237:1 33477:1 37174:1 38420:1 39219:1 40299:1 41138:1 41285:1 41920:1 41933:1 44693:1 46170:1 47281:2 47634:1 49037:1 54604:1 55929:1 56012:1 56790:1 59255:1 59982:1 60136:1 61300:1 64192:1 64573:1 64981:1 65899:1 66943:1 66963:1 67649:1 67771:1 67889:1 68315:2 69519:1 69635:1 70458:1 71720:1 72171:1 72417:1 75787:1 76777:1 78684:1 79734:1 80088:1 80461:1 81365:1 82407:1 83372:1 83584:1 84663:1 85081:1 86036:1 87038:1 87161:1 88120:1 88852:1 90299:1 90315:1 90506:1 91447:1 92806:1 93059:1 97093:1 97649:1 98245:1 #
-0.0012250816803654456660366278697438 18:1 19:2 210:2 250:2 759:1 2259:3 2276:1 3255:1 3360:1 3808:1 4022:1 4028:3 4618:1 6226:1 6413:1 6414:1 7046:1 7954:1 10481:1 12455:1 13019:1 13137:1 13753:2 14960:1 16237:1 16274:1 16354:1 18266:1 23397:1 25461:1 26534:1 26727:1 27481:1 30271:2 34653:1 35705:2 35753:1 35961:1 39442:1 40216:1 41004:1 46320:1 46340:1 49912:1 56396:2 56405:1 57852:1 61130:1 61304:1 61805:2 62094:1 62897:2 66943:1 67435:1 69081:1 69978:1 69996:1 70374:3 71789:1 74961:1 76767:1 77536:1 77949:1 78327:1 78655:1 80896:1 82793:1 85683:1 87542:1 89721:1 90256:1 90965:1 92350:1 92370:1 93376:1 94649:1 97204:1 97905:1 98342:2 98780:1 99933:1 100107:2 100117:2 #
-0.0012250816803654456660366278697438 17:2 18:1 1175:1 2259:4 4618:5 4879:1 5281:1 7046:5 10481:1 10482:1 13753:1 14300:1 14960:1 15609:1 15779:1 17808:1 18004:1 22145:1 33237:1 38585:1 41138:1 46170:1 48716:5 56485:1 64080:1 64645:1 66474:7 66943:2 67435:1 69302:1 69649:1 70874:2 71720:1 74149:1 74450:1 76614:1 77715:1 85651:1 91129:1 94406:1 97410:1 97539:1 97876:1 98538:1 100117:1 100388:2 #
0.0012250816803654456660366278697438 10481:1 11644:1 13241:1 13753:2 14024:1 25061:1 26051:1 26968:1 27538:1 36700:1 43790:1 44693:1 46170:1 48716:4 53669:1 56337:1 58860:1 63969:1 66977:1 69813:1 77022:1 80683:1 80932:1 81348:1 90234:1 90256:1 90479:1 90485:1 91226:1 97094:1 100421:2 #
0.0012250816803654456660366278697438 10481:1 10482:2 13753:1 15348:2 15779:1 17714:2 22145:2 28578:1 36700:1 37025:2 37027:1 46170:1 48901:1 51907:3 57902:1 57914:2 64192:1 65521:1 66010:1 66523:1 67435:2 67455:1 67537:3 68388:2 69674:1 70608:1 76644:2 78089:1 88958:1 90506:2 90880:1 93686:1 97410:1 #
-0.0012250816803654456660366278697438 10481:1 12564:1 13492:1 15340:1 18153:1 20208:1 20306:1 22093:1 22489:1 24193:1 26472:1 31676:1 33347:1 35823:1 38858:1 39489:1 46781:1 49446:1 49480:1 50202:1 50437:1 51843:1 51875:1 52364:1 52659:1 53403:1 54392:1 56931:1 59006:1 60008:1 62982:2 65521:2 66093:1 66307:1 66915:1 75123:1 75257:1 79031:1 79496:1 86939:1 90760:1 91113:1 91845:1 93240:1 94862:1 94905:1 95746:1 96380:1 96851:1 99213:1 99327:1 99600:1 100928:1 #
0.0012250816803654456660366278697438 2182:1 3889:2 5023:1 5211:1 5730:1 7490:1 8074:2 9190:1 9197:1 9344:1 9401:1 9425:1 10481:1 22604:2 23297:1 24899:2 25962:1 34826:1 36700:1 39442:2 47634:1 54586:1 56790:1 63006:1 69039:1 71088:2 86293:2 #
-0.00022972086023984451645663096286398 19:2 396:1 758:1 760:1 1014:1 1682:1 2259:1 3469:1 5230:1 10481:1 10482:11 10747:1 10754:1 10947:1 11045:3 11283:2 11296:1 11958:1 13087:1 13137:2 13256:2 13753:14 14300:4 14522:1 14628:2 14960:3 15348:7 15626:1 15666:1 15769:1 15949:1 16354:1 17112:1 17714:5 17922:1 18004:1 18157:2 18265:1 19166:1 19324:1 20162:1 21452:2 21463:1 21638:1 22082:1 22145:1 22254:1 22331:1 24040:1 25441:1 25461:1 25782:1 25785:1 25962:1 26283:1 26417:1 26624:1 26728:1 26844:1 27341:2 28151:2 28229:3 29706:1 29707:1 29826:1 29827:1 30006:1 30271:2 30300:1 30310:1 30444:1 31249:1 31735:1 32221:1 32806:1 33237:1 33405:1 33666:1 34994:1 35679:1 36654:1 36822:1 36884:1 38567:1 39001:1 39178:1 39219:4 39297:1 39300:2 39382:3 39386:1 39548:1 39847:1 39974:1 40216:1 40227:1 40680:1 41034:1 41138:10 41200:1 41213:1 41398:1 41467:1 41852:1 41920:3 42328:2 43220:1 43389:1 43744:1 44078:1 44109:1 44170:1 44233:1 44356:1 44409:1 44637:1 45557:1 45763:1 45830:1 46005:1 46170:3 46317:2 46637:1 46755:1 47281:2 47557:1 47581:1 48067:2 48716:11 49037:3 49759:17 50487:2 50720:1 51268:1 51399:3 51443:1 51544:1 51552:1 51625:1 51907:2 52044:1 52083:1 54545:1 54924:2 55807:3 56012:1 56143:1 56769:1 57527:1 58052:2 58073:1 58180:1 58608:1 59142:1 60136:2 60231:4 60604:5 60643:1 61726:1 61866:1 62512:1 62781:4 62901:1 63327:3 63562:1 63846:1 63969:7 64395:1 64540:1 64619:1 64712:1 64981:2 65024:1 65880:1 66943:21 67435:4 67455:1 67537:1 67674:1 67846:1 67889:4 68082:1 68315:1 68388:3 68699:1 68700:1 69597:1 70343:1 70374:1 70386:1 70663:1 71829:1 73429:1 73442:1 73734:2 73819:1 74017:1 74028:1 74106:1 74241:1 74278:1 74961:1 75713:1 75717:1 77424:2 77457:1 78198:1 78327:1 78684:1 78690:1 79176:1 79684:1 80683:1 80995:2 82215:1 82256:1 82513:2 82561:1 82855:1 84065:1 84178:2 84206:1 84440:1 85009:1 85255:2 85294:1 86314:1 87866:3 88244:1 88310:1 88470:1 90234:7 90256:28 90299:1 90315:2 90379:2 90506:13 90574:1 90643:2 91226:16 91592:1 91801:1 91978:2 92537:1 92978:1 93059:1 93908:1 94406:3 94575:1 94616:3 94833:1 95527:1 95744:1 95991:1 97016:1 97108:1 97200:2 97410:4 97470:2 97915:1 97947:2 98000:1 98051:2 98073:2 98245:1 98264:3 98271:1 98512:4 98531:1 98857:1 98980:1 98991:4 99312:1 100388:15 100421:6 100448:1 101011:5 101012:3 101327:1 #
0.0012250816803654456660366278697438 10481:1 10482:1 10747:1 12112:1 13632:1 14628:1 17438:1 30300:1 33237:1 41138:1 41409:1 44704:1 47271:1 48716:4 50200:1 50781:1 58052:1 66943:1 67435:1 72645:1 74189:1 76614:1 76718:1 77500:1 78591:1 82252:1 85352:1 87899:1 90214:1 90234:1 90256:2 90880:1 91226:1 95171:1 96091:1 97200:1 100388:2 100421:2 #
-0.0012250816803654456660366278697438 18:1 335:1 639:1 758:4 930:1 1151:1 2125:1 2858:1 3703:1 5960:1 6080:2 6596:2 7140:1 10481:1 10482:2 11469:1 15779:1 20249:1 25962:1 31615:1 37415:1 39372:1 41034:1 41036:1 41138:1 41920:1 45557:1 49362:1 51907:2 52538:1 53563:1 59142:1 59146:2 61266:1 65880:2 66943:1 68080:1 70515:1 76576:1 76777:1 76902:1 78831:1 82240:1 82786:1 89060:1 90256:2 91226:2 91970:2 92693:1 94056:1 94665:1 95085:2 97200:1 97958:1 #
-0.0012250816803654456660366278697438 2045:1 3265:1 6596:1 6958:1 7332:1 10481:1 15626:1 15779:1 17714:1 18127:2 18383:2 22145:1 25962:1 28151:1 30861:1 30934:1 31576:1 33226:1 33237:1 38970:1 41138:1 41447:1 41920:1 42289:1 46170:1 47926:2 48716:2 49037:1 49909:1 50467:1 51907:1 58860:1 59142:3 61266:2 62982:1 64849:2 65880:2 67455:1 67889:1 68811:1 71866:2 72682:2 73819:1 74066:2 78207:1 78831:3 80836:1 82513:1 82516:1 84956:1 85416:1 88852:1 90121:1 90234:1 90256:4 90506:2 91226:5 93684:1 94665:1 100388:3 100421:1 #
-0.0012250816803654456660366278697438 17:2 210:1 398:1 572:1 758:4 1093:1 1782:1 2125:1 2858:1 3116:1 3703:1 6080:3 6171:1 6596:2 9232:1 10481:1 11469:1 15779:1 25962:1 29985:1 31615:1 37415:1 39372:1 41034:1 41036:1 41138:1 41920:1 45557:1 46286:1 47319:1 51396:1 53563:1 59142:1 61266:1 64645:1 66943:1 68080:1 70515:1 76576:1 76777:1 76902:1 76972:1 78831:1 82240:1 82786:1 89060:1 90256:2 91226:1 91970:2 92693:1 94056:3 94665:3 97200:1 97958:1 #
-0.0012250816803654456660366278697438 18:7 758:1 1279:1 1724:1 1947:1 3186:1 3359:1 3704:1 4011:1 4590:1 7953:1 9487:7 10481:1 10570:1 12886:1 14960:2 15779:1 21638:1 24547:1 25591:1 25611:1 25615:1 30934:1 39608:1 39790:1 42146:1 45094:1 48580:1 51907:1 57640:1 57666:7 58052:1 59164:1 63234:1 64085:1 64645:1 65521:1 66943:1 67961:1 71211:7 75742:1 76614:2 77174:1 81251:1 90506:3 90880:1 91788:1 95120:1 95813:1 95850:1 98512:1 99406:1 100388:1 #
0.0012250816803654456660366278697438 2262:2 4028:2 7570:1 7584:1 7592:1 7599:1 10481:1 12455:1 12886:1 13177:1 13753:1 15497:5 15649:1 15779:1 19863:1 22145:1 22571:2 22620:1 22681:1 25133:1 25962:7 26789:1 26793:4 30094:1 34660:1 34961:1 35116:1 41138:2 41482:2 41920:2 42146:1 45359:1 45361:1 46345:1 48242:7 48244:1 48901:4 49759:1 50258:2 51001:1 51907:1 55567:1 55935:1 56024:1 57310:1 58052:1 61660:1 62882:2 64849:1 64981:1 65024:1 65085:1 66943:4 67010:1 67435:2 67537:1 71866:1 72448:1 73996:1 76402:1 76583:2 76636:2 76637:5 76644:2 77674:1 77683:2 78000:4 78023:1 78211:2 79684:1 80589:1 80683:2 82632:2 84032:1 86435:1 87052:2 87065:1 87945:2 90066:1 90123:1 90256:12 90410:1 91226:2 91477:1 94406:1 95991:1 96005:4 96235:1 96627:4 96635:1 97283:1 97326:1 97513:1 98512:1 98914:1 99312:7 100388:1 #
-0.0012250816803654456660366278697438 2259:2 7332:1 9486:2 9687:1 10481:1 15337:1 15348:4 19104:2 20876:1 21546:1 25228:1 27784:1 28151:1 33930:1 35471:1 41720:1 42377:1 46621:1 47634:1 48204:1 48242:2 49037:1 49759:1 53033:1 53782:1 54097:1 54872:1 55185:1 56993:1 58287:2 58462:1 61582:1 63071:1 66943:1 67889:1 69680:1 71635:1 75353:1 76402:1 77386:2 79598:1 80507:1 80588:1 81312:1 86278:1 90221:1 90256:1 90583:1 91226:1 91264:1 92626:1 94944:1 98657:1 98991:1 100388:3 100421:1 #
-0.0012250816803654456660366278697438 17:1 8827:2 9232:1 10481:1 10482:2 13753:1 14300:1 15779:2 18516:1 24317:1 24983:1 26206:1 27622:1 33614:1 34096:1 37224:2 37924:1 38052:1 41138:2 46170:1 47281:1 48055:1 48331:1 52083:1 57081:1 59255:1 59597:1 59982:1 60733:1 60762:1 62773:1 62982:1 63516:1 66474:1 66943:1 69062:1 69919:1 70919:1 71407:1 71748:1 73380:1 75193:2 76679:1 77892:1 80995:1 85727:1 90256:5 91226:1 92350:1 94760:2 95148:1 95258:1 95610:1 95714:1 97410:1 98478:1 100388:2 #
0.0012250816613570652928444371099204 3469:1 5230:1 10481:1 10482:1 10841:1 11393:1 12601:1 12675:1 12721:1 13429:1 13887:1 16941:1 17234:3 17877:1 17878:1 18679:1 19582:1 21660:1 21661:1 21663:2 21664:1 23910:1 23913:1 23916:1 23917:1 24032:1 24624:1 25461:4 29601:1 29608:1 29625:2 29629:1 29729:1 33215:1 33237:6 33778:1 34034:1 34640:1 34904:1 35803:1 42945:1 42946:1 42947:1 43131:1 44296:1 44332:1 45015:1 45017:1 48027:1 48716:6 48954:1 49003:1 49357:1 52315:1 52325:1 52386:1 52421:3 52429:1 52820:1 52850:1 53644:1 53695:1 56006:1 56060:1 56443:1 56887:1 58532:1 59385:1 60685:1 60816:1 61571:1 61943:1 62628:1 62633:1 62635:1 63856:1 64040:2 64081:4 64127:1 64188:1 64255:1 64297:1 64334:1 64448:1 65240:1 65242:4 65549:1 65552:1 66474:2 66629:1 66839:1 66899:1 67212:1 67224:1 67486:1 68924:2 68929:1 69191:1 69192:1 70370:1 71308:1 71327:1 71673:1 72114:2 72128:1 72136:1 72153:1 72204:1 72267:1 72303:2 72351:1 72396:1 72445:1 72886:1 72894:1 72994:2 74566:1 74587:1 74588:1 74592:1 74596:1 76515:1 77425:1 79798:1 79848:2 80684:2 83804:8 83807:1 84375:1 84648:1 84650:1 84978:1 85059:1 86073:1 86495:1 87393:1 88612:1 88850:1 88852:1 89088:1 89299:1 89309:1 89631:1 91226:1 92429:1 92586:1 92587:1 92981:1 93027:1 93041:1 93052:1 93053:2 93120:2 93200:1 93217:1 93452:1 94702:1 94883:1 96860:16 97200:2 97392:1 97410:1 98124:1 98126:1 98127:1 98156:1 98169:1 98610:1 99016:1 99159:1 99342:1 100675:3 100727:1 100756:1 100784:1 100836:1 100843:4 100909:1 100935:1 101015:3 101019:1 101128:1 101132:2 101144:1 #
0.0012250816803654456660366278697438 4028:1 10481:1 10966:1 11039:1 11640:1 12029:1 12030:2 13687:1 15348:1 15927:2 16001:1 17396:1 18895:1 23077:1 25264:1 25441:1 26365:1 31111:1 38661:1 41138:1 44420:1 49759:2 51627:1 52782:1 53805:1 55668:1 57166:2 63113:1 65521:2 66438:1 67019:1 67772:1 68199:1 70552:1 75795:1 75866:1 78071:1 78219:1 79478:1 80780:1 81373:1 84206:1 85468:1 85930:1 90017:1 91226:2 91395:1 91424:1 91833:1 94105:1 94319:1 94419:1 94616:3 95993:1 #
-0.0012250816803654456660366278697438 1175:1 1180:1 3784:1 4251:1 6080:1 7195:1 7986:1 8472:2 8887:1 9185:2 9232:2 9261:1 9262:1 10481:1 10482:1 18765:1 23406:1 23840:1 24130:1 24218:2 24812:1 25962:9 30242:2 31735:1 34653:3 38426:1 38970:1 38988:1 39048:2 39442:2 41138:1 42716:1 42717:1 43621:1 44261:1 45107:1 45108:1 46707:1 47736:1 48242:2 48416:1 50251:2 51450:1 55001:1 55047:1 55148:1 55720:1 57213:1 59142:2 59782:1 60197:1 61612:1 64896:1 64981:1 65988:1 66005:1 66999:1 69333:1 70048:1 72082:6 72215:1 72989:1 73958:1 73961:1 74182:1 74465:1 79648:1 79935:1 80847:2 80896:1 85977:2 86925:1 88196:2 89668:2 89669:1 90095:6 90111:1 90119:1 90134:1 90135:1 97513:3 98311:2 99312:7 101186:1 #
-0.0012250816803654456660366278697438 8827:3 10481:1 13137:1 15299:1 16047:1 16354:1 20523:2 21721:1 22647:1 26871:1 64203:1 66977:1 67376:1 67889:2 69720:1 71030:1 71363:1 75193:3 76679:1 78185:1 79855:1 90506:1 91806:1 94760:3 97252:1 97410:1 99110:1 #
0.00074929131466223183703767585228661 758:2 4447:2 5960:2 6411:2 10481:1 11624:1 13533:1 14663:1 14666:1 16273:1 21638:1 23724:1 25133:1 25962:1 26689:1 34260:1 36209:2 36700:1 38555:4 41034:2 41138:2 48242:1 51907:1 55992:1 57310:1 64192:2 67435:1 76665:1 78207:4 81681:1 86606:1 89116:1 90256:2 90506:1 91226:1 91592:1 92605:2 99691:1 #
-0.0012250816803654456660366278697438 333:1 3703:1 10481:1 13632:1 13753:1 26534:1 29242:1 36383:1 46233:1 46781:1 50437:1 51268:1 62982:1 68315:1 70517:1 72475:1 75043:1 82215:1 85554:1 91226:1 94358:1 100421:1 #
-0.00077055885780247680011401101296542 759:1 787:1 1175:1 2259:5 3232:1 3469:1 5499:1 6081:1 7953:1 9487:5 10481:1 10482:10 12069:1 13753:3 14961:1 15324:1 15348:11 17714:1 17978:1 19863:1 20049:1 21490:1 21638:1 24353:1 25133:1 25962:1 26237:1 27601:1 28151:1 28565:1 29706:1 30115:1 30397:1 30895:1 30934:3 30937:1 30938:4 31192:1 32053:1 33413:1 34660:1 35049:1 36599:1 38067:1 40259:2 41138:8 41920:1 43389:2 44177:1 44393:1 44550:1 44693:1 46170:1 46347:1 46781:1 47634:3 49759:5 52083:2 52154:1 53669:1 54924:1 56049:1 56599:1 57103:1 57159:1 57600:2 58011:1 58287:5 59036:1 59260:1 61266:1 61983:1 62931:1 62982:1 63244:1 63555:1 64358:1 64981:6 65024:2 65085:1 65521:1 65880:1 65974:1 66422:1 66458:1 66943:5 67435:4 67537:2 67634:1 67889:3 68811:1 69028:1 69567:1 70343:1 71689:1 71720:1 72427:1 73573:1 74485:1 75470:1 75565:1 76583:1 76901:1 78217:1 78914:1 79275:1 80683:4 80995:1 81259:1 81325:1 81741:1 82186:1 82240:1 82573:1 85481:1 86528:1 87052:1 87065:1 87200:1 87472:1 87945:1 90212:1 90234:4 90256:21 90329:1 90506:1 90574:1 90903:11 91226:3 93686:1 93868:1 97200:1 97262:1 97326:1 97552:6 97554:1 97556:1 97562:1 97741:1 97876:1 97941:1 97970:1 98366:1 98914:1 99116:1 100371:6 100388:6 100421:2 #
0.0012250816803654456660366278697438 10481:1 11618:1 13753:2 16728:1 16756:1 17896:1 21452:1 23856:1 24140:1 33257:3 33311:1 41034:1 43335:1 46170:1 49759:2 50437:1 52083:1 60848:2 61471:3 61494:1 66422:1 66999:1 67800:1 68001:1 72673:1 77172:1 78207:1 78219:2 80683:2 90256:1 #
0.0010272925681064867288461162075919 760:2 761:2 1683:1 2261:1 2262:1 3471:1 4924:1 5232:1 5763:1 5816:1 6081:1 6082:1 6171:1 8397:1 8423:1 10481:1 10482:1 12919:1 13753:4 14960:1 15779:1 21957:1 22039:1 23960:1 24399:1 26728:1 27236:1 27334:2 27445:2 27489:1 31733:1 34529:1 34592:1 34653:1 35637:1 38361:1 40380:8 42410:1 44356:1 45674:1 58052:1 62074:1 63006:1 63921:14 69632:1 70832:1 71466:1 86471:1 87890:1 89972:1 90256:1 94007:4 95271:1 97410:1 97741:1 100329:1 #
0.0012250816803654456660366278697438 3360:1 4173:1 5587:1 10481:1 13753:3 15348:1 15675:1 18061:1 21452:1 21992:1 22018:1 27603:1 32020:1 41138:1 44693:1 44772:1 48716:2 49631:1 51907:1 52083:1 54257:1 56091:2 56182:1 58492:1 66943:2 67455:1 68388:1 69596:1 70347:1 70374:1 71088:1 71678:1 76614:1 79177:1 83544:1 90023:1 91226:2 91354:1 98245:1 98512:1 100388:2 #
-0.0012250816803654456660366278697438 17:1 7953:2 9486:2 10481:1 10683:1 13242:1 13753:1 17714:1 18765:1 30094:2 34653:1 37328:1 48716:1 48901:1 50265:1 54872:1 67458:1 67499:1 67510:1 67586:1 67939:1 68388:1 76591:1 77965:1 80684:2 84174:1 84178:1 88852:1 91226:1 95399:2 95813:1 #
-0.0012250816803654456660366278697438 333:2 512:1 760:1 1014:1 1526:1 2499:2 3591:1 3870:1 5091:1 5960:1 10481:1 11055:1 11102:1 13187:1 14960:3 15348:1 15779:1 15943:1 17714:1 21638:1 22747:1 23498:1 24840:2 25962:1 33895:2 36759:1 37722:1 38067:1 40125:1 40380:1 41029:1 48242:2 49037:1 49759:4 50093:1 51907:2 52083:1 52349:1 53135:1 53669:1 54924:1 57159:1 57310:1 57418:1 57424:1 58207:1 58988:1 59187:1 61866:1 63027:1 64849:2 66272:4 66281:1 66943:3 67010:2 67889:1 67949:1 68388:1 69929:1 71821:1 71866:1 72838:2 72839:1 72907:1 77104:1 78327:1 78693:3 78775:1 80683:1 81272:1 82632:2 84956:1 90234:1 90256:6 90329:1 90410:1 90506:2 90880:1 90999:1 91226:3 96235:2 97539:1 97876:1 98245:1 98405:2 98991:1 99312:2 100388:2 100421:1 #
-0.0012250816803654456660366278697438 10481:1 10482:1 10831:1 11045:1 11767:1 13632:1 13753:3 15348:1 17896:1 17957:1 22525:1 23802:1 24389:1 25133:1 25323:2 26009:1 27354:1 29283:1 29490:3 30026:3 30300:1 31656:1 32821:1 33237:1 41138:2 41707:1 41920:1 42165:1 46170:4 46781:1 47057:1 49037:1 51185:1 51584:1 51587:1 51907:1 52083:1 52758:2 53207:2 60047:2 65521:1 65880:2 66010:1 66611:1 66943:1 67435:1 67889:2 68315:1 68388:1 69591:1 69606:1 73321:1 74017:1 76614:1 78327:1 80683:2 82240:1 84032:1 84070:1 86341:1 88801:1 90234:1 90256:1 90372:1 90506:1 91226:3 94616:1 94665:1 94696:1 97410:1 98512:1 100388:5 100448:1 100452:1 #
-0.0012250816803654456660366278697438 10481:1 10482:2 13460:2 14327:1 14773:2 25731:1 27343:1 27952:1 31441:2 31457:1 35637:2 36921:2 37653:2 37698:1 39676:3 40595:1 43389:1 47634:1 57316:1 58165:1 58965:1 60927:1 64429:3 65521:2 65856:1 66010:1 66241:1 69333:2 71819:1 72659:2 74349:1 74821:1 74886:2 75668:1 76958:1 78054:2 80958:1 83718:3 88304:1 91273:1 91862:1 93504:2 95542:1 99933:2 #
0.0012250816803654456660366278697438 210:1 709:1 1014:1 4028:1 5047:1 6568:1 10128:1 10481:1 10482:1 11419:1 12112:1 13753:1 29941:1 30271:1 30993:1 39613:1 41138:1 52083:1 52194:1 60865:1 65981:1 66943:1 67435:1 71866:1 73573:1 77959:1 80683:1 89835:1 90221:1 90234:1 90256:1 90880:1 #
0.0012250816803654456660366278697438 10481:1 10482:1 13478:1 13753:1 14644:1 21925:1 26127:1 34212:2 36326:1 41138:2 44723:1 46170:1 48716:1 54924:1 56769:1 65946:1 66943:2 67435:1 67841:1 68388:1 71866:1 72548:1 72603:1 73940:1 74278:1 78207:1 87891:1 90256:1 90578:1 92333:2 94616:1 96091:1 100421:1 #
0.0012250816803654456660366278697438 19:4 5783:1 6032:1 6081:2 6082:1 6320:1 10481:1 10482:1 18388:1 18848:1 23722:1 23728:1 43051:1 46781:1 50437:1 51907:1 56346:1 59764:1 65521:2 68315:1 78328:1 80645:1 90234:1 90256:1 100388:1 #
-0.0012250816803654456660366278697438 17:1 7953:1 10481:1 10943:1 11303:1 11503:1 12194:1 12736:1 12752:1 13026:1 13753:1 13770:1 13796:1 14100:1 14272:1 15116:1 15423:1 15601:1 15730:1 15965:1 16186:1 16365:1 16684:1 17215:1 17872:1 18106:1 18226:1 18765:1 18892:1 18897:1 19010:1 19202:1 19824:1 20162:1 20613:1 20633:1 20892:2 21293:1 21302:1 21416:1 21988:1 22277:1 22873:1 23429:1 24035:1 24183:1 24263:1 24466:1 24718:1 24746:1 24981:1 25146:1 25662:1 25700:1 26308:1 26545:1 26584:1 26634:1 26773:1 27237:1 27470:1 28049:1 28189:1 28334:1 28804:1 29179:1 30075:1 30094:1 30671:1 30848:1 30993:1 31380:1 32231:1 32242:1 32315:1 32341:1 32606:1 33036:1 33757:1 33921:1 33973:1 34002:1 34498:1 35261:1 35506:1 37328:1 37890:1 38023:1 38490:1 41287:1 41378:1 41693:1 44281:1 44552:1 45139:1 45874:1 45884:1 46916:1 46954:1 47495:1 50265:1 51451:1 53215:1 53604:1 55223:1 55718:1 57260:1 57490:1 59235:1 59353:1 59980:1 60931:1 61244:1 61313:1 61615:1 61862:1 64281:1 65728:1 65895:1 66288:1 66324:1 67262:1 67499:1 67939:1 68388:2 70489:1 70575:1 70669:1 70697:1 72391:1 74250:1 75024:1 75654:1 75982:1 76619:1 76998:1 77965:1 78372:1 79800:1 80684:2 80842:1 81493:1 81505:1 82171:1 82509:1 82903:1 83194:1 83776:1 84174:1 84178:1 84204:1 84866:1 85275:1 87851:1 87861:1 88624:1 89174:1 89315:1 91226:1 92875:1 93054:1 95399:2 95813:1 95891:1 96066:1 99084:1 101002:1 #
-0.0012250816803654456660366278697438 17:1 7046:1 10481:1 10776:1 10858:1 11224:1 12043:1 12485:1 13635:1 13727:1 13735:1 13753:2 13866:1 14197:1 14229:1 14249:1 14470:1 14941:1 16531:1 16953:1 16987:1 17134:1 17161:1 17300:1 17934:1 18093:1 18127:1 18133:1 18157:1 18302:1 18402:1 18765:1 19042:1 19429:1 19722:1 19947:1 20055:1 20680:1 20802:1 21496:1 22329:1 23284:1 23420:1 24090:1 24451:1 24662:1 24733:1 24825:1 25564:1 25693:1 26314:1 26495:1 26744:1 27524:1 27569:1 27798:1 28003:1 28133:1 28286:1 28290:1 28327:1 28828:1 28873:1 29288:1 29293:1 29593:1 29868:1 30094:1 30706:1 30782:1 30889:1 31405:2 33580:1 33677:1 34087:1 34721:1 34732:1 35774:1 37053:1 37260:1 37328:1 38730:1 38900:1 40722:1 41012:1 41803:1 41842:1 43318:1 45165:1 45178:1 45884:1 46067:1 46131:1 46159:1 46683:1 47464:1 48261:1 48300:1 49519:1 50265:1 50306:1 51469:1 56419:1 57004:1 58133:1 59804:1 60205:1 60550:1 60713:1 62174:1 62580:1 63105:1 63533:1 64379:1 64665:1 66224:1 66329:1 66814:1 67499:1 67939:1 68388:1 69451:1 69654:1 69761:1 70352:1 72246:1 75557:1 76826:1 77829:1 77965:1 78395:1 78475:1 78574:1 79464:1 80684:2 80820:1 81604:1 82294:1 83037:1 83795:1 84174:1 84178:1 84804:1 85203:1 86879:1 87418:1 88061:1 88147:1 88710:1 88753:1 89330:1 89527:1 89882:1 89968:1 90392:1 90763:1 90995:1 91226:1 91347:1 91663:1 92691:1 92877:1 95399:2 95813:1 96406:1 98352:1 99405:1 #
0.0012250816803654456660366278697438 10481:1 11834:1 12886:1 13126:1 13753:2 14960:2 15348:2 15779:1 16662:2 19219:1 19587:1 22318:1 22350:1 26415:1 28988:1 38093:1 40380:2 41138:1 46781:1 47805:1 48716:1 49759:3 51552:1 51907:1 57527:1 59142:1 59394:1 61098:1 63969:1 64981:1 65521:1 66943:1 68756:1 69678:1 72872:1 72963:1 73800:1 77758:1 84535:2 87152:1 87300:1 87532:1 90256:5 90299:3 90433:1 91939:1 96091:1 96491:1 97649:2 #
